{"learner":{"attributes":{"best_iteration":"554","best_score":"108856.95656518887"},"feature_names":["hour","day_of_week","is_weekend","lag_1h","lag_24h","rolling_mean_3h"],"feature_types":["int","int","int","float","float","float"],"gradient_booster":{"model":{"cats":{"enc":[],"feature_segments":[],"sorted_idx":[]},"gbtree_model_param":{"num_parallel_tree":"1","num_trees":"605"},"iteration_indptr":[0,1,2,3,4,5,6,7,8,9,10,11,12,13,14,15,16,17,18,19,20,21,22,23,24,25,26,27,28,29,30,31,32,33,34,35,36,37,38,39,40,41,42,43,44,45,46,47,48,49,50,51,52,53,54,55,56,57,58,59,60,61,62,63,64,65,66,67,68,69,70,71,72,73,74,75,76,77,78,79,80,81,82,83,84,85,86,87,88,89,90,91,92,93,94,95,96,97,98,99,100,101,102,103,104,105,106,107,108,109,110,111,112,113,114,115,116,117,118,119,120,121,122,123,124,125,126,127,128,129,130,131,132,133,134,135,136,137,138,139,140,141,142,143,144,145,146,147,148,149,150,151,152,153,154,155,156,157,158,159,160,161,162,163,164,165,166,167,168,169,170,171,172,173,174,175,176,177,178,179,180,181,182,183,184,185,186,187,188,189,190,191,192,193,194,195,196,197,198,199,200,201,202,203,204,205,206,207,208,209,210,211,212,213,214,215,216,217,218,219,220,221,222,223,224,225,226,227,228,229,230,231,232,233,234,235,236,237,238,239,240,241,242,243,244,245,246,247,248,249,250,251,252,253,254,255,256,257,258,259,260,261,262,263,264,265,266,267,268,269,270,271,272,273,274,275,276,277,278,279,280,281,282,283,284,285,286,287,288,289,290,291,292,293,294,295,296,297,298,299,300,301,302,303,304,305,306,307,308,309,310,311,312,313,314,315,316,317,318,319,320,321,322,323,324,325,326,327,328,329,330,331,332,333,334,335,336,337,338,339,340,341,342,343,344,345,346,347,348,349,350,351,352,353,354,355,356,357,358,359,360,361,362,363,364,365,366,367,368,369,370,371,372,373,374,375,376,377,378,379,380,381,382,383,384,385,386,387,388,389,390,391,392,393,394,395,396,397,398,399,400,401,402,403,404,405,406,407,408,409,410,411,412,413,414,415,416,417,418,419,420,421,422,423,424,425,426,427,428,429,430,431,432,433,434,435,436,437,438,439,440,441,442,443,444,445,446,447,448,449,450,451,452,453,454,455,456,457,458,459,460,461,462,463,464,465,466,467,468,469,470,471,472,473,474,475,476,477,478,479,480,481,482,483,484,485,486,487,488,489,490,491,492,493,494,495,496,497,498,499,500,501,502,503,504,505,506,507,508,509,510,511,512,513,514,515,516,517,518,519,520,521,522,523,524,525,526,527,528,529,530,531,532,533,534,535,536,537,538,539,540,541,542,543,544,545,546,547,548,549,550,551,552,553,554,555,556,557,558,559,560,561,562,563,564,565,566,567,568,569,570,571,572,573,574,575,576,577,578,579,580,581,582,583,584,585,586,587,588,589,590,591,592,593,594,595,596,597,598,599,600,601,602,603,604,605],"tree_info":[0,0,0,0,0,0,0,0,0,0,0,0,0,0,0,0,0,0,0,0,0,0,0,0,0,0,0,0,0,0,0,0,0,0,0,0,0,0,0,0,0,0,0,0,0,0,0,0,0,0,0,0,0,0,0,0,0,0,0,0,0,0,0,0,0,0,0,0,0,0,0,0,0,0,0,0,0,0,0,0,0,0,0,0,0,0,0,0,0,0,0,0,0,0,0,0,0,0,0,0,0,0,0,0,0,0,0,0,0,0,0,0,0,0,0,0,0,0,0,0,0,0,0,0,0,0,0,0,0,0,0,0,0,0,0,0,0,0,0,0,0,0,0,0,0,0,0,0,0,0,0,0,0,0,0,0,0,0,0,0,0,0,0,0,0,0,0,0,0,0,0,0,0,0,0,0,0,0,0,0,0,0,0,0,0,0,0,0,0,0,0,0,0,0,0,0,0,0,0,0,0,0,0,0,0,0,0,0,0,0,0,0,0,0,0,0,0,0,0,0,0,0,0,0,0,0,0,0,0,0,0,0,0,0,0,0,0,0,0,0,0,0,0,0,0,0,0,0,0,0,0,0,0,0,0,0,0,0,0,0,0,0,0,0,0,0,0,0,0,0,0,0,0,0,0,0,0,0,0,0,0,0,0,0,0,0,0,0,0,0,0,0,0,0,0,0,0,0,0,0,0,0,0,0,0,0,0,0,0,0,0,0,0,0,0,0,0,0,0,0,0,0,0,0,0,0,0,0,0,0,0,0,0,0,0,0,0,0,0,0,0,0,0,0,0,0,0,0,0,0,0,0,0,0,0,0,0,0,0,0,0,0,0,0,0,0,0,0,0,0,0,0,0,0,0,0,0,0,0,0,0,0,0,0,0,0,0,0,0,0,0,0,0,0,0,0,0,0,0,0,0,0,0,0,0,0,0,0,0,0,0,0,0,0,0,0,0,0,0,0,0,0,0,0,0,0,0,0,0,0,0,0,0,0,0,0,0,0,0,0,0,0,0,0,0,0,0,0,0,0,0,0,0,0,0,0,0,0,0,0,0,0,0,0,0,0,0,0,0,0,0,0,0,0,0,0,0,0,0,0,0,0,0,0,0,0,0,0,0,0,0,0,0,0,0,0,0,0,0,0,0,0,0,0,0,0,0,0,0,0,0,0,0,0,0,0,0,0,0,0,0,0,0,0,0,0,0,0,0,0,0,0,0,0,0,0,0,0,0,0,0,0,0,0,0,0,0,0,0,0,0,0,0,0,0,0,0,0,0,0,0,0,0,0,0,0,0,0,0,0,0,0,0,0,0,0,0,0,0,0,0,0,0,0,0,0,0,0,0,0,0,0,0,0,0,0,0,0,0,0,0,0,0,0,0],"trees":[{"base_weights":[-1.1570248E-1,-1.6245529E6,8.842501E5,-1.8165046E6,-5.5770075E5,2.183456E5,1.6735709E6,-1.9596246E4,-1.3130839E6,-1.57323E3,-6.649395E5,-1.9468893E4,5.971962E5,1.7337984E4,7.5830044E3,-1.3914578E4,-2.6467236E3,-7.2911807E3,-1.7202338E3,-6.0882437E3,1.0412471E5,3.7280066E3,7.1699297E3,6.547058E3,2.4312523E4,-1.0907913E3,9.38339E2],"categories":[],"categories_nodes":[],"categories_segments":[],"categories_sizes":[],"default_left":[0,0,0,0,0,0,0,0,0,0,0,0,0,0,0,0,0,0,0,0,0,0,0,0,0,0,0],"id":0,"left_children":[1,3,5,7,9,11,13,-1,15,-1,17,19,21,-1,-1,-1,-1,-1,-1,-1,23,-1,-1,-1,25,-1,-1],"loss_changes":[1.7525436E14,7.792656E12,4.115796E13,2.0627587E10,2.3887767E11,3.9758578E12,6.6974646E11,0E0,5.3556858E11,0E0,6.4382566E10,2.1029297E12,1.8969684E11,0E0,0E0,0E0,0E0,0E0,0E0,0E0,1.0387165E12,0E0,0E0,0E0,2.1425386E11,0E0,0E0],"parents":[2147483647,0,0,1,1,2,2,3,3,4,4,5,5,6,6,8,8,10,10,11,11,12,12,20,20,24,24],"right_children":[2,4,6,8,10,12,14,-1,16,-1,18,20,22,-1,-1,-1,-1,-1,-1,-1,24,-1,-1,-1,26,-1,-1],"split_conditions":[3.5610198E6,3.2206248E6,5.1819855E6,2.6370692E6,5E0,4.1983795E6,2E1,-1.9596246E4,3E0,-1.57323E3,3.807679E6,1E0,4.3955905E6,1.7337984E4,7.5830044E3,-1.3914578E4,-2.6467236E3,-7.2911807E3,-1.7202338E3,-6.0882437E3,1E1,3.7280066E3,7.1699297E3,6.547058E3,4.092904E6,-1.0907913E3,9.38339E2],"split_indices":[3,4,3,5,1,4,0,0,0,0,4,0,4,0,0,0,0,0,0,0,0,0,0,0,5,0,0],"split_type":[0,0,0,0,0,0,0,0,0,0,0,0,0,0,0,0,0,0,0,0,0,0,0,0,0,0,0],"sum_hessian":[1.2E2,4.2E1,7.8E1,3.5E1,7E0,4.3E1,3.5E1,2.5E1,1E1,2E0,5E0,2.7E1,1.6E1,3.2E1,3E0,9E0,1E0,4E0,1E0,4E0,2.3E1,7E0,9E0,2E0,2.1E1,7E0,1.4E1],"tree_param":{"num_deleted":"0","num_feature":"6","num_nodes":"27","size_leaf_vector":"1"}},{"base_weights":[-8.786157E1,-1.6093944E6,8.758649E5,-1.799344E6,-5.5344675E5,2.164168E5,1.6575275E6,-1.9407822E4,-1.3014588E6,-1.5627417E3,-6.5979194E5,-1.9263223E4,5.9186525E5,1.7169857E4,7.526132E3,-1.3789348E4,-2.63349E3,-7.2328506E3,-1.7116324E3,-6.039538E3,1.03349945E5,3.6953865E3,7.1054E3,6.5034116E3,2.4062512E4,-1.0812472E3,9.2958203E2],"categories":[],"categories_nodes":[],"categories_segments":[],"categories_sizes":[],"default_left":[0,0,0,0,0,0,0,0,0,0,0,0,0,0,0,0,0,0,0,0,0,0,0,0,0,0,0],"id":1,"left_children":[1,3,5,7,9,11,13,-1,15,-1,17,19,21,-1,-1,-1,-1,-1,-1,-1,23,-1,-1,-1,25,-1,-1],"loss_changes":[1.7198046E14,7.628969E12,4.036309E13,9.286189E9,2.3479058E11,3.9047717E12,6.447484E11,0E0,5.215743E11,0E0,6.2347543E10,2.0697602E12,1.8596495E11,0E0,0E0,0E0,0E0,0E0,0E0,0E0,1.0252198E12,0E0,0E0,0E0,2.1040795E11,0E0,0E0],"parents":[2147483647,0,0,1,1,2,2,3,3,4,4,5,5,6,6,8,8,10,10,11,11,12,12,20,20,24,24],"right_children":[2,4,6,8,10,12,14,-1,16,-1,18,20,22,-1,-1,-1,-1,-1,-1,-1,24,-1,-1,-1,26,-1,-1],"split_conditions":[3.5610198E6,3.2206248E6,5.1819855E6,2.6370692E6,5E0,4.1983795E6,2E1,-1.9407822E4,3E0,-1.5627417E3,3.807679E6,1E0,4.3955905E6,1.7169857E4,7.526132E3,-1.3789348E4,-2.63349E3,-7.2328506E3,-1.7116324E3,-6.039538E3,1E1,3.6953865E3,7.1054E3,6.5034116E3,4.092904E6,-1.0812472E3,9.2958203E2],"split_indices":[3,4,3,5,1,4,0,0,0,0,4,0,4,0,0,0,0,0,0,0,0,0,0,0,5,0,0],"split_type":[0,0,0,0,0,0,0,0,0,0,0,0,0,0,0,0,0,0,0,0,0,0,0,0,0,0,0],"sum_hessian":[1.2E2,4.2E1,7.8E1,3.5E1,7E0,4.3E1,3.5E1,2.5E1,1E1,2E0,5E0,2.7E1,1.6E1,3.2E1,3E0,9E0,1E0,4E0,1E0,4E0,2.3E1,7E0,9E0,2E0,2.1E1,7E0,1.4E1],"tree_param":{"num_deleted":"0","num_feature":"6","num_nodes":"27","size_leaf_vector":"1"}},{"base_weights":[-1.7400206E2,-1.5943781E6,8.6755956E5,-1.7823459E4,-5.4922575E5,2.1450517E5,1.6416382E6,-1.5523232E3,-6.546848E5,-1.905941E4,5.865818E5,1.7003365E4,7.469685E3,-7.174989E3,-1.7030737E3,-5.9912217E3,1.0258115E5,3.6630508E3,7.0414497E3,6.4600547E3,2.3815045E4,-1.0717863E3,9.209066E2],"categories":[],"categories_nodes":[],"categories_segments":[],"categories_sizes":[],"default_left":[0,0,0,0,0,0,0,0,0,0,0,0,0,0,0,0,0,0,0,0,0,0,0],"id":2,"left_children":[1,3,5,-1,7,9,11,-1,13,15,17,-1,-1,-1,-1,-1,19,-1,-1,-1,21,-1,-1],"loss_changes":[1.6876789E14,7.4686545E12,3.9583585E13,0E0,2.3077297E11,3.8349528E12,6.20455E11,0E0,6.035892E10,2.0371151E12,1.8230752E11,0E0,0E0,0E0,0E0,0E0,1.01189734E12,0E0,0E0,0E0,2.0663098E11,0E0,0E0],"parents":[2147483647,0,0,1,1,2,2,4,4,5,5,6,6,8,8,9,9,10,10,16,16,20,20],"right_children":[2,4,6,-1,8,10,12,-1,14,16,18,-1,-1,-1,-1,-1,20,-1,-1,-1,22,-1,-1],"split_conditions":[3.5610198E6,3.2206248E6,5.1819855E6,-1.7823459E4,5E0,4.1983795E6,2E1,-1.5523232E3,3.807679E6,1E0,4.3955905E6,1.7003365E4,7.469685E3,-7.174989E3,-1.7030737E3,-5.9912217E3,1E1,3.6630508E3,7.0414497E3,6.4600547E3,4.092904E6,-1.0717863E3,9.209066E2],"split_indices":[3,4,3,0,1,4,0,0,4,0,4,0,0,0,0,0,0,0,0,0,5,0,0],"split_type":[0,0,0,0,0,0,0,0,0,0,0,0,0,0,0,0,0,0,0,0,0,0,0],"sum_hessian":[1.2E2,4.2E1,7.8E1,3.5E1,7E0,4.3E1,3.5E1,2E0,5E0,2.7E1,1.6E1,3.2E1,3E0,4E0,1E0,4E0,2.3E1,7E0,9E0,2E0,2.1E1,7E0,1.4E1],"tree_param":{"num_deleted":"0","num_feature":"6","num_nodes":"23","size_leaf_vector":"1"}},{"base_weights":[-1.123874E2,-1.5790914E6,8.593333E5,-1.7650175E6,-5.450373E5,2.126106E5,1.6259018E6,-1.904983E4,-1.273734E6,-1.541975E3,-6.496177E5,-1.885751E4,5.813457E5,1.6838484E4,7.4136616E3,-1.3504832E4,-2.5312048E3,-7.1175884E3,-1.6945587E3,-5.9432915E3,1.0181816E5,3.6309995E3,6.9780767E3,6.416988E3,2.3569967E4,-1.0624084E3,9.1231067E2],"categories":[],"categories_nodes":[],"categories_segments":[],"categories_sizes":[],"default_left":[0,0,0,0,0,0,0,0,0,0,0,0,0,0,0,0,0,0,0,0,0,0,0,0,0,0,0],"id":3,"left_children":[1,3,5,7,9,11,13,-1,15,-1,17,19,21,-1,-1,-1,-1,-1,-1,-1,23,-1,-1,-1,25,-1,-1],"loss_changes":[1.6555961E14,7.305085E12,3.8819143E13,4.9006248E10,2.2682403E11,3.7663807E12,5.9686624E11,0E0,5.1981268E11,0E0,5.841512E10,2.0049856E12,1.7872034E11,0E0,0E0,0E0,0E0,0E0,0E0,0E0,9.987477E11,0E0,0E0,0E0,2.0292159E11,0E0,0E0],"parents":[2147483647,0,0,1,1,2,2,3,3,4,4,5,5,6,6,8,8,10,10,11,11,12,12,20,20,24,24],"right_children":[2,4,6,8,10,12,14,-1,16,-1,18,20,22,-1,-1,-1,-1,-1,-1,-1,24,-1,-1,-1,26,-1,-1],"split_conditions":[3.5610198E6,3.2206248E6,5.1819855E6,2.6370692E6,5E0,4.1983795E6,2E1,-1.904983E4,3E0,-1.541975E3,3.807679E6,1E0,4.3955905E6,1.6838484E4,7.4136616E3,-1.3504832E4,-2.5312048E3,-7.1175884E3,-1.6945587E3,-5.9432915E3,1E1,3.6309995E3,6.9780767E3,6.416988E3,4.092904E6,-1.0624084E3,9.1231067E2],"split_indices":[3,4,3,5,1,4,0,0,0,0,4,0,4,0,0,0,0,0,0,0,0,0,0,0,5,0,0],"split_type":[0,0,0,0,0,0,0,0,0,0,0,0,0,0,0,0,0,0,0,0,0,0,0,0,0,0,0],"sum_hessian":[1.2E2,4.2E1,7.8E1,3.5E1,7E0,4.3E1,3.5E1,2.5E1,1E1,2E0,5E0,2.7E1,1.6E1,3.2E1,3E0,9E0,1E0,4E0,1E0,4E0,2.3E1,7E0,9E0,2E0,2.1E1,7E0,1.4E1],"tree_param":{"num_deleted":"0","num_feature":"6","num_nodes":"27","size_leaf_vector":"1"}},{"base_weights":[-1.9603099E2,-1.5643572E6,8.511854E5,-1.748342E6,-5.4088125E5,2.10733E5,1.6103164E6,-1.8866658E4,-1.2624545E6,-1.531695E3,-6.4459025E5,-1.865733E4,5.761563E5,1.6675201E4,7.3580586E3,-1.338329E4,-2.5185486E3,-7.0606484E3,-1.6860862E3,-5.895746E3,1.0106116E5,3.5992283E3,6.915275E3,6.374208E3,2.3327512E4,-1.0531116E3,9.037963E2],"categories":[],"categories_nodes":[],"categories_segments":[],"categories_sizes":[],"default_left":[0,0,0,0,0,0,0,0,0,0,0,0,0,0,0,0,0,0,0,0,0,0,0,0,0,0,0],"id":4,"left_children":[1,3,5,7,9,11,13,-1,15,-1,17,19,21,-1,-1,-1,-1,-1,-1,-1,23,-1,-1,-1,25,-1,-1],"loss_changes":[1.62467E14,7.151414E12,3.806945E13,3.772357E10,2.2294194E11,3.6990311E12,5.739402E11,0E0,5.0640034E11,0E0,5.651615E10,1.9733649E12,1.7520394E11,0E0,0E0,0E0,0E0,0E0,0E0,0E0,9.857673E11,0E0,0E0,0E0,1.9927887E11,0E0,0E0],"parents":[2147483647,0,0,1,1,2,2,3,3,4,4,5,5,6,6,8,8,10,10,11,11,12,12,20,20,24,24],"right_children":[2,4,6,8,10,12,14,-1,16,-1,18,20,22,-1,-1,-1,-1,-1,-1,-1,24,-1,-1,-1,26,-1,-1],"split_conditions":[3.5610198E6,3.2206248E6,5.1819855E6,2.6370692E6,5E0,4.1983795E6,2E1,-1.8866658E4,3E0,-1.531695E3,3.807679E6,1E0,4.3955905E6,1.6675201E4,7.3580586E3,-1.338329E4,-2.5185486E3,-7.0606484E3,-1.6860862E3,-5.895746E3,1E1,3.5992283E3,6.915275E3,6.374208E3,4.092904E6,-1.0531116E3,9.037963E2],"split_indices":[3,4,3,5,1,4,0,0,0,0,4,0,4,0,0,0,0,0,0,0,0,0,0,0,5,0,0],"split_type":[0,0,0,0,0,0,0,0,0,0,0,0,0,0,0,0,0,0,0,0,0,0,0,0,0,0,0],"sum_hessian":[1.2E2,4.2E1,7.8E1,3.5E1,7E0,4.3E1,3.5E1,2.5E1,1E1,2E0,5E0,2.7E1,1.6E1,3.2E1,3E0,9E0,1E0,4E0,1E0,4E0,2.3E1,7E0,9E0,2E0,2.1E1,7E0,1.4E1],"tree_param":{"num_deleted":"0","num_feature":"6","num_nodes":"27","size_leaf_vector":"1"}},{"base_weights":[-2.781157E2,-1.5497612E6,8.4311494E5,-1.7318244E6,-5.367572E5,2.0887212E5,1.5948808E6,-1.8685248E4,-1.2512756E6,-1.5214833E3,-6.3960206E5,-1.845901E4,5.7101325E5,1.6513502E4,7.3028735E3,-1.3262841E4,-2.5059563E3,-7.004162E3,-1.6776562E3,-5.84858E3,1.0030991E5,3.5677349E3,6.853037E3,6.331713E3,2.3087443E4,-1.0438978E3,8.953613E2],"categories":[],"categories_nodes":[],"categories_segments":[],"categories_sizes":[],"default_left":[0,0,0,0,0,0,0,0,0,0,0,0,0,0,0,0,0,0,0,0,0,0,0,0,0,0,0],"id":5,"left_children":[1,3,5,7,9,11,13,-1,15,-1,17,19,21,-1,-1,-1,-1,-1,-1,-1,23,-1,-1,-1,25,-1,-1],"loss_changes":[1.5943224E14,7.0009477E12,3.733425E13,2.6843546E10,2.1912617E11,3.6328817E12,5.516684E11,0E0,4.9329314E11,0E0,5.466017E10,1.9422435E12,1.7175675E11,0E0,0E0,0E0,0E0,0E0,0E0,0E0,9.729546E11,0E0,0E0,0E0,1.9570195E11,0E0,0E0],"parents":[2147483647,0,0,1,1,2,2,3,3,4,4,5,5,6,6,8,8,10,10,11,11,12,12,20,20,24,24],"right_children":[2,4,6,8,10,12,14,-1,16,-1,18,20,22,-1,-1,-1,-1,-1,-1,-1,24,-1,-1,-1,26,-1,-1],"split_conditions":[3.5610198E6,3.2206248E6,5.1819855E6,2.6370692E6,5E0,4.1983795E6,2E1,-1.8685248E4,3E0,-1.5214833E3,3.807679E6,1E0,4.3955905E6,1.6513502E4,7.3028735E3,-1.3262841E4,-2.5059563E3,-7.004162E3,-1.6776562E3,-5.84858E3,1E1,3.5677349E3,6.853037E3,6.331713E3,4.092904E6,-1.0438978E3,8.953613E2],"split_indices":[3,4,3,5,1,4,0,0,0,0,4,0,4,0,0,0,0,0,0,0,0,0,0,0,5,0,0],"split_type":[0,0,0,0,0,0,0,0,0,0,0,0,0,0,0,0,0,0,0,0,0,0,0,0,0,0,0],"sum_hessian":[1.2E2,4.2E1,7.8E1,3.5E1,7E0,4.3E1,3.5E1,2.5E1,1E1,2E0,5E0,2.7E1,1.6E1,3.2E1,3E0,9E0,1E0,4E0,1E0,4E0,2.3E1,7E0,9E0,2E0,2.1E1,7E0,1.4E1],"tree_param":{"num_deleted":"0","num_feature":"6","num_nodes":"27","size_leaf_vector":"1"}},{"base_weights":[-3.5866528E2,-1.5353022E6,8.3512144E5,-1.7154631E6,-5.32665E5,2.0702789E5,1.5795936E6,-1.8505582E4,-1.2401965E6,-1.51134E3,-6.3465294E5,-1.8262402E4,5.659161E5,1.6353372E4,7.248103E3,-1.3143476E4,-2.4934263E3,-6.9481284E3,-1.6692675E3,-5.8017915E3,9.956453E4,3.536517E3,6.7913604E3,6.289502E3,2.284992E4,-1.0347628E3,8.870057E2],"categories":[],"categories_nodes":[],"categories_segments":[],"categories_sizes":[],"default_left":[0,0,0,0,0,0,0,0,0,0,0,0,0,0,0,0,0,0,0,0,0,0,0,0,0,0,0],"id":6,"left_children":[1,3,5,7,9,11,13,-1,15,-1,17,19,21,-1,-1,-1,-1,-1,-1,-1,23,-1,-1,-1,25,-1,-1],"loss_changes":[1.5645435E14,6.8535934E12,3.6613233E13,1.6357786E10,2.1537489E11,3.5679125E12,5.300426E11,0E0,4.8047954E11,0E0,5.2847444E10,1.9116154E12,1.6837614E11,0E0,0E0,0E0,0E0,0E0,0E0,0E0,9.6030727E11,0E0,0E0,0E0,1.9218897E11,0E0,0E0],"parents":[2147483647,0,0,1,1,2,2,3,3,4,4,5,5,6,6,8,8,10,10,11,11,12,12,20,20,24,24],"right_children":[2,4,6,8,10,12,14,-1,16,-1,18,20,22,-1,-1,-1,-1,-1,-1,-1,24,-1,-1,-1,26,-1,-1],"split_conditions":[3.5610198E6,3.2206248E6,5.1819855E6,2.6370692E6,5E0,4.1983795E6,2E1,-1.8505582E4,3E0,-1.51134E3,3.807679E6,1E0,4.3955905E6,1.6353372E4,7.248103E3,-1.3143476E4,-2.4934263E3,-6.9481284E3,-1.6692675E3,-5.8017915E3,1E1,3.536517E3,6.7913604E3,6.289502E3,4.092904E6,-1.0347628E3,8.870057E2],"split_indices":[3,4,3,5,1,4,0,0,0,0,4,0,4,0,0,0,0,0,0,0,0,0,0,0,5,0,0],"split_type":[0,0,0,0,0,0,0,0,0,0,0,0,0,0,0,0,0,0,0,0,0,0,0,0,0,0,0],"sum_hessian":[1.2E2,4.2E1,7.8E1,3.5E1,7E0,4.3E1,3.5E1,2.5E1,1E1,2E0,5E0,2.7E1,1.6E1,3.2E1,3E0,9E0,1E0,4E0,1E0,4E0,2.3E1,7E0,9E0,2E0,2.1E1,7E0,1.4E1],"tree_param":{"num_deleted":"0","num_feature":"6","num_nodes":"27","size_leaf_vector":"1"}},{"base_weights":[-4.3777478E2,-1.5209788E6,8.27204E5,-1.699257E6,-5.286044E5,2.0520008E5,1.5644531E6,-1.8327645E4,-1.229216E6,-1.501265E3,-6.2974256E5,-1.8067643E4,5.6086456E5,1.6194792E4,7.193743E3,-1.3025185E4,-2.4809587E3,-6.8925425E3,-1.6609213E3,-5.755378E3,9.882479E4,3.5055728E3,6.7302393E3,6.247572E3,2.2614705E4,-1.0257087E3,8.78727E2],"categories":[],"categories_nodes":[],"categories_segments":[],"categories_sizes":[],"default_left":[0,0,0,0,0,0,0,0,0,0,0,0,0,0,0,0,0,0,0,0,0,0,0,0,0,0,0],"id":7,"left_children":[1,3,5,7,9,11,13,-1,15,-1,17,19,21,-1,-1,-1,-1,-1,-1,-1,23,-1,-1,-1,25,-1,-1],"loss_changes":[1.5353223E14,6.7092674E12,3.590614E13,6.274679E9,2.1168757E11,3.5041035E12,5.090459E11,0E0,4.679543E11,0E0,5.1075875E10,1.8814705E12,1.6506159E11,0E0,0E0,0E0,0E0,0E0,0E0,0E0,9.4782384E11,0E0,0E0,0E0,1.887391E11,0E0,0E0],"parents":[2147483647,0,0,1,1,2,2,3,3,4,4,5,5,6,6,8,8,10,10,11,11,12,12,20,20,24,24],"right_children":[2,4,6,8,10,12,14,-1,16,-1,18,20,22,-1,-1,-1,-1,-1,-1,-1,24,-1,-1,-1,26,-1,-1],"split_conditions":[3.5610198E6,3.2206248E6,5.1819855E6,2.6370692E6,5E0,4.1983795E6,2E1,-1.8327645E4,3E0,-1.501265E3,3.807679E6,1E0,4.3955905E6,1.6194792E4,7.193743E3,-1.3025185E4,-2.4809587E3,-6.8925425E3,-1.6609213E3,-5.755378E3,1E1,3.5055728E3,6.7302393E3,6.247572E3,4.092904E6,-1.0257087E3,8.78727E2],"split_indices":[3,4,3,5,1,4,0,0,0,0,4,0,4,0,0,0,0,0,0,0,0,0,0,0,5,0,0],"split_type":[0,0,0,0,0,0,0,0,0,0,0,0,0,0,0,0,0,0,0,0,0,0,0,0,0,0,0],"sum_hessian":[1.2E2,4.2E1,7.8E1,3.5E1,7E0,4.3E1,3.5E1,2.5E1,1E1,2E0,5E0,2.7E1,1.6E1,3.2E1,3E0,9E0,1E0,4E0,1E0,4E0,2.3E1,7E0,9E0,2E0,2.1E1,7E0,1.4E1],"tree_param":{"num_deleted":"0","num_feature":"6","num_nodes":"27","size_leaf_vector":"1"}},{"base_weights":[-5.1539465E2,-1.5067896E6,8.193619E5,-1.6832041E4,-5.245752E5,2.0338858E5,1.5494581E6,-1.4912567E3,-6.2487075E5,-1.7874615E4,5.5585806E5,1.603775E4,7.13979E3,-6.8374023E3,-1.6526162E3,-5.7093335E3,9.809074E4,3.4748997E3,6.6696665E3,6.205922E3,2.2381875E4,-1.0167334E3,8.7052527E2],"categories":[],"categories_nodes":[],"categories_segments":[],"categories_sizes":[],"default_left":[0,0,0,0,0,0,0,0,0,0,0,0,0,0,0,0,0,0,0,0,0,0,0],"id":8,"left_children":[1,3,5,-1,7,9,11,-1,13,15,17,-1,-1,-1,-1,-1,19,-1,-1,-1,21,-1,-1],"loss_changes":[1.5066477E14,6.5679445E12,3.5212726E13,0E0,2.080629E11,3.441431E12,4.886364E11,0E0,4.9345724E10,1.8518017E12,1.61811E11,0E0,0E0,0E0,0E0,0E0,9.3550176E11,0E0,0E0,0E0,1.8535105E11,0E0,0E0],"parents":[2147483647,0,0,1,1,2,2,4,4,5,5,6,6,8,8,9,9,10,10,16,16,20,20],"right_children":[2,4,6,-1,8,10,12,-1,14,16,18,-1,-1,-1,-1,-1,20,-1,-1,-1,22,-1,-1],"split_conditions":[3.5610198E6,3.2206248E6,5.1819855E6,-1.6832041E4,5E0,4.1983795E6,2E1,-1.4912567E3,3.807679E6,1E0,4.3955905E6,1.603775E4,7.13979E3,-6.8374023E3,-1.6526162E3,-5.7093335E3,1E1,3.4748997E3,6.6696665E3,6.205922E3,4.092904E6,-1.0167334E3,8.7052527E2],"split_indices":[3,4,3,0,1,4,0,0,4,0,4,0,0,0,0,0,0,0,0,0,5,0,0],"split_type":[0,0,0,0,0,0,0,0,0,0,0,0,0,0,0,0,0,0,0,0,0,0,0],"sum_hessian":[1.2E2,4.2E1,7.8E1,3.5E1,7E0,4.3E1,3.5E1,2E0,5E0,2.7E1,1.6E1,3.2E1,3E0,4E0,1E0,4E0,2.3E1,7E0,9E0,2E0,2.1E1,7E0,1.4E1],"tree_param":{"num_deleted":"0","num_feature":"6","num_nodes":"23","size_leaf_vector":"1"}},{"base_weights":[-4.536405E2,-1.4923452E6,8.115944E5,-1.6668398E6,-5.2057706E5,2.0159319E5,1.5346071E6,-1.798957E4,-1.2030316E6,-1.481315E3,-6.20037E5,-1.7683357E4,5.508961E5,1.58822295E4,7.0862417E3,-1.275647E4,-2.3843938E3,-6.782702E3,-1.6443538E3,-5.6636597E3,9.7362336E4,3.4444934E3,6.609639E3,6.164548E3,2.2151432E4,-1.00783685E3,8.624007E2],"categories":[],"categories_nodes":[],"categories_segments":[],"categories_sizes":[],"default_left":[0,0,0,0,0,0,0,0,0,0,0,0,0,0,0,0,0,0,0,0,0,0,0,0,0,0,0],"id":9,"left_children":[1,3,5,7,9,11,13,-1,15,-1,17,19,21,-1,-1,-1,-1,-1,-1,-1,23,-1,-1,-1,25,-1,-1],"loss_changes":[1.478012E14,6.4237024E12,3.4532682E13,4.1775268E10,2.0450024E11,3.379875E12,4.688309E11,0E0,4.6632272E11,0E0,4.7655158E10,1.8226028E12,1.5862438E11,0E0,0E0,0E0,0E0,0E0,0E0,0E0,9.233386E11,0E0,0E0,0E0,1.8202396E11,0E0,0E0],"parents":[2147483647,0,0,1,1,2,2,3,3,4,4,5,5,6,6,8,8,10,10,11,11,12,12,20,20,24,24],"right_children":[2,4,6,8,10,12,14,-1,16,-1,18,20,22,-1,-1,-1,-1,-1,-1,-1,24,-1,-1,-1,26,-1,-1],"split_conditions":[3.5610198E6,3.2206248E6,5.1819855E6,2.6370692E6,5E0,4.1983795E6,2E1,-1.798957E4,3E0,-1.481315E3,3.807679E6,1E0,4.3955905E6,1.58822295E4,7.0862417E3,-1.275647E4,-2.3843938E3,-6.782702E3,-1.6443538E3,-5.6636597E3,1E1,3.4444934E3,6.609639E3,6.164548E3,4.092904E6,-1.00783685E3,8.624007E2],"split_indices":[3,4,3,5,1,4,0,0,0,0,4,0,4,0,0,0,0,0,0,0,0,0,0,0,5,0,0],"split_type":[0,0,0,0,0,0,0,0,0,0,0,0,0,0,0,0,0,0,0,0,0,0,0,0,0,0,0],"sum_hessian":[1.2E2,4.2E1,7.8E1,3.5E1,7E0,4.3E1,3.5E1,2.5E1,1E1,2E0,5E0,2.7E1,1.6E1,3.2E1,3E0,9E0,1E0,4E0,1E0,4E0,2.3E1,7E0,9E0,2E0,2.1E1,7E0,1.4E1],"tree_param":{"num_deleted":"0","num_feature":"6","num_nodes":"27","size_leaf_vector":"1"}},{"base_weights":[-5.2891736E2,-1.4784228E6,8.03901E5,-1.6510916E6,-5.1660984E5,1.9981377E5,1.5198992E6,-1.7816594E4,-1.1923778E6,-1.47144E3,-6.152411E5,-1.7493885E4,5.459785E5,1.5728222E4,7.0330947E3,-1.2641661E4,-2.3724712E3,-6.7284404E3,-1.6361324E3,-5.61835E3,9.663943E4,3.414354E3,6.550151E3,6.1234517E3,2.1923217E4,-9.9901904E2,8.543507E2],"categories":[],"categories_nodes":[],"categories_segments":[],"categories_sizes":[],"default_left":[0,0,0,0,0,0,0,0,0,0,0,0,0,0,0,0,0,0,0,0,0,0,0,0,0,0,0],"id":10,"left_children":[1,3,5,7,9,11,13,-1,15,-1,17,19,21,-1,-1,-1,-1,-1,-1,-1,23,-1,-1,-1,25,-1,-1],"loss_changes":[1.4504081E14,6.28826E12,3.3865813E13,3.1742493E10,2.0099813E11,3.3194183E12,4.496126E11,0E0,4.5431967E11,0E0,4.6004437E10,1.7938641E12,1.5550015E11,0E0,0E0,0E0,0E0,0E0,0E0,0E0,9.1133346E11,0E0,0E0,0E0,1.7875657E11,0E0,0E0],"parents":[2147483647,0,0,1,1,2,2,3,3,4,4,5,5,6,6,8,8,10,10,11,11,12,12,20,20,24,24],"right_children":[2,4,6,8,10,12,14,-1,16,-1,18,20,22,-1,-1,-1,-1,-1,-1,-1,24,-1,-1,-1,26,-1,-1],"split_conditions":[3.5610198E6,3.2206248E6,5.1819855E6,2.6370692E6,5E0,4.1983795E6,2E1,-1.7816594E4,3E0,-1.47144E3,3.807679E6,1E0,4.3955905E6,1.5728222E4,7.0330947E3,-1.2641661E4,-2.3724712E3,-6.7284404E3,-1.6361324E3,-5.61835E3,1E1,3.414354E3,6.550151E3,6.1234517E3,4.092904E6,-9.9901904E2,8.543507E2],"split_indices":[3,4,3,5,1,4,0,0,0,0,4,0,4,0,0,0,0,0,0,0,0,0,0,0,5,0,0],"split_type":[0,0,0,0,0,0,0,0,0,0,0,0,0,0,0,0,0,0,0,0,0,0,0,0,0,0,0],"sum_hessian":[1.2E2,4.2E1,7.8E1,3.5E1,7E0,4.3E1,3.5E1,2.5E1,1E1,2E0,5E0,2.7E1,1.6E1,3.2E1,3E0,9E0,1E0,4E0,1E0,4E0,2.3E1,7E0,9E0,2E0,2.1E1,7E0,1.4E1],"tree_param":{"num_deleted":"0","num_feature":"6","num_nodes":"27","size_leaf_vector":"1"}},{"base_weights":[-6.027293E2,-1.4646308E6,7.9628094E5,-1.6354928E6,-5.126732E5,1.9805036E5,1.5053328E6,-1.7645281E4,-1.1818189E6,-1.46163E3,-6.1048275E5,-1.7306045E4,5.41105E5,1.5575708E4,6.980347E3,-1.2527885E4,-2.3606086E3,-6.6746123E3,-1.6279512E3,-5.573404E3,9.5922195E4,3.3844792E3,6.491201E3,6.082628E3,2.1697467E4,-9.902778E2,8.463776E2],"categories":[],"categories_nodes":[],"categories_segments":[],"categories_sizes":[],"default_left":[0,0,0,0,0,0,0,0,0,0,0,0,0,0,0,0,0,0,0,0,0,0,0,0,0,0,0],"id":11,"left_children":[1,3,5,7,9,11,13,-1,15,-1,17,19,21,-1,-1,-1,-1,-1,-1,-1,23,-1,-1,-1,25,-1,-1],"loss_changes":[1.4233211E14,6.1556193E12,3.3211816E13,2.2087205E10,1.9755565E11,3.2600411E12,4.3093118E11,0E0,4.425861E11,0E0,4.4391727E10,1.7655813E12,1.5243726E11,0E0,0E0,0E0,0E0,0E0,0E0,0E0,8.994825E11,0E0,0E0,0E0,1.7554812E11,0E0,0E0],"parents":[2147483647,0,0,1,1,2,2,3,3,4,4,5,5,6,6,8,8,10,10,11,11,12,12,20,20,24,24],"right_children":[2,4,6,8,10,12,14,-1,16,-1,18,20,22,-1,-1,-1,-1,-1,-1,-1,24,-1,-1,-1,26,-1,-1],"split_conditions":[3.5610198E6,3.2206248E6,5.1819855E6,2.6370692E6,5E0,4.1983795E6,2E1,-1.7645281E4,3E0,-1.46163E3,3.807679E6,1E0,4.3955905E6,1.5575708E4,6.980347E3,-1.2527885E4,-2.3606086E3,-6.6746123E3,-1.6279512E3,-5.573404E3,1E1,3.3844792E3,6.491201E3,6.082628E3,4.092904E6,-9.902778E2,8.463776E2],"split_indices":[3,4,3,5,1,4,0,0,0,0,4,0,4,0,0,0,0,0,0,0,0,0,0,0,5,0,0],"split_type":[0,0,0,0,0,0,0,0,0,0,0,0,0,0,0,0,0,0,0,0,0,0,0,0,0,0,0],"sum_hessian":[1.2E2,4.2E1,7.8E1,3.5E1,7E0,4.3E1,3.5E1,2.5E1,1E1,2E0,5E0,2.7E1,1.6E1,3.2E1,3E0,9E0,1E0,4E0,1E0,4E0,2.3E1,7E0,9E0,2E0,2.1E1,7E0,1.4E1],"tree_param":{"num_deleted":"0","num_feature":"6","num_nodes":"27","size_leaf_vector":"1"}},{"base_weights":[-6.7516943E2,-1.4509681E6,7.887334E5,-1.6200415E6,-5.08767E5,1.9630261E5,1.4909061E6,-1.7475615E4,-1.171354E6,-1.451885E3,-6.0576175E5,-1.712E4,5.36275E5,1.5424674E4,6.9279937E3,-1.2415134E4,-2.3488062E3,-6.6212163E3,-1.6198112E3,-5.528816E3,9.5210336E4,3.696212E3,6.775578E3,6.0420767E3,2.1473863E4,-9.816131E2,8.38477E2],"categories":[],"categories_nodes":[],"categories_segments":[],"categories_sizes":[],"default_left":[0,0,0,0,0,0,0,0,0,0,0,0,0,0,0,0,0,0,0,0,0,0,0,0,0,0,0],"id":12,"left_children":[1,3,5,7,9,11,13,-1,15,-1,17,19,21,-1,-1,-1,-1,-1,-1,-1,23,-1,-1,-1,25,-1,-1],"loss_changes":[1.3967414E14,6.0257217E12,3.2570452E13,1.2792627E10,1.9417203E11,3.2017235E12,4.1282018E11,0E0,4.3111783E11,0E0,4.2817552E10,1.7377439E12,1.4983102E11,0E0,0E0,0E0,0E0,0E0,0E0,0E0,8.877853E11,0E0,0E0,0E0,1.7239692E11,0E0,0E0],"parents":[2147483647,0,0,1,1,2,2,3,3,4,4,5,5,6,6,8,8,10,10,11,11,12,12,20,20,24,24],"right_children":[2,4,6,8,10,12,14,-1,16,-1,18,20,22,-1,-1,-1,-1,-1,-1,-1,24,-1,-1,-1,26,-1,-1],"split_conditions":[3.5610198E6,3.2206248E6,5.1819855E6,2.6370692E6,5E0,4.1983795E6,2E1,-1.7475615E4,3E0,-1.451885E3,3.807679E6,1E0,4.5471455E6,1.5424674E4,6.9279937E3,-1.2415134E4,-2.3488062E3,-6.6212163E3,-1.6198112E3,-5.528816E3,1E1,3.696212E3,6.775578E3,6.0420767E3,4.092904E6,-9.816131E2,8.38477E2],"split_indices":[3,4,3,5,1,4,0,0,0,0,4,0,4,0,0,0,0,0,0,0,0,0,0,0,5,0,0],"split_type":[0,0,0,0,0,0,0,0,0,0,0,0,0,0,0,0,0,0,0,0,0,0,0,0,0,0,0],"sum_hessian":[1.2E2,4.2E1,7.8E1,3.5E1,7E0,4.3E1,3.5E1,2.5E1,1E1,2E0,5E0,2.7E1,1.6E1,3.2E1,3E0,9E0,1E0,4E0,1E0,4E0,2.3E1,9E0,7E0,2E0,2.1E1,7E0,1.4E1],"tree_param":{"num_deleted":"0","num_feature":"6","num_nodes":"27","size_leaf_vector":"1"}},{"base_weights":[-7.4060333E2,-1.4374338E6,7.8126625E5,-1.6047368E6,-5.048909E5,1.9458597E5,1.4766181E6,-1.7307582E4,-1.1609826E6,-1.442205E3,-6.010776E5,-1.6935625E4,5.3152825E5,1.5630728E4,8.95153E3,-1.23033955E4,-2.3370625E3,-6.568246E3,-1.6117125E3,-5.484586E3,9.450398E4,3.3225227E3,6.377962E3,6.001797E3,2.1252568E4,-9.7302496E2,8.30651E2],"categories":[],"categories_nodes":[],"categories_segments":[],"categories_sizes":[],"default_left":[0,0,0,0,0,0,0,0,0,0,0,0,0,0,0,0,0,0,0,0,0,0,0,0,0,0,0],"id":13,"left_children":[1,3,5,7,9,11,13,-1,15,-1,17,19,21,-1,-1,-1,-1,-1,-1,-1,23,-1,-1,-1,25,-1,-1],"loss_changes":[1.3706699E14,5.898525E12,3.1940665E13,3.8335939E9,1.9084581E11,3.144907E12,4.1053848E11,0E0,4.1990645E11,0E0,4.1279422E10,1.7103474E12,1.4809406E11,0E0,0E0,0E0,0E0,0E0,0E0,0E0,8.762396E11,0E0,0E0,0E0,1.6930259E11,0E0,0E0],"parents":[2147483647,0,0,1,1,2,2,3,3,4,4,5,5,6,6,8,8,10,10,11,11,12,12,20,20,24,24],"right_children":[2,4,6,8,10,12,14,-1,16,-1,18,20,22,-1,-1,-1,-1,-1,-1,-1,24,-1,-1,-1,26,-1,-1],"split_conditions":[3.5610198E6,3.2206248E6,5.1819855E6,2.6370692E6,5E0,4.1983795E6,1.9E1,-1.7307582E4,3E0,-1.442205E3,3.807679E6,1E0,4.3955905E6,1.5630728E4,8.95153E3,-1.23033955E4,-2.3370625E3,-6.568246E3,-1.6117125E3,-5.484586E3,1E1,3.3225227E3,6.377962E3,6.001797E3,4.092904E6,-9.7302496E2,8.30651E2],"split_indices":[3,4,3,5,1,4,0,0,0,0,4,0,4,0,0,0,0,0,0,0,0,0,0,0,5,0,0],"split_type":[0,0,0,0,0,0,0,0,0,0,0,0,0,0,0,0,0,0,0,0,0,0,0,0,0,0,0],"sum_hessian":[1.2E2,4.2E1,7.8E1,3.5E1,7E0,4.3E1,3.5E1,2.5E1,1E1,2E0,5E0,2.7E1,1.6E1,2.9E1,6E0,9E0,1E0,4E0,1E0,4E0,2.3E1,7E0,9E0,2E0,2.1E1,7E0,1.4E1],"tree_param":{"num_deleted":"0","num_feature":"6","num_nodes":"27","size_leaf_vector":"1"}},{"base_weights":[-7.9029956E2,-1.4240261E6,7.738924E5,-1.5895769E4,-5.0104475E5,1.9286905E5,1.462535E6,-1.43259E3,-5.964302E5,-1.6752965E4,5.2678356E5,1.5479632E4,8.874804E3,-6.5157007E3,-1.6036537E3,-5.44071E3,9.3803E4,3.6269326E3,6.660485E3,5.961783E3,2.10335E4,-9.645112E2,8.2289734E2],"categories":[],"categories_nodes":[],"categories_segments":[],"categories_sizes":[],"default_left":[0,0,0,0,0,0,0,0,0,0,0,0,0,0,0,0,0,0,0,0,0,0,0],"id":14,"left_children":[1,3,5,-1,7,9,11,-1,13,15,17,-1,-1,-1,-1,-1,19,-1,-1,-1,21,-1,-1],"loss_changes":[1.3451134E14,5.7739544E12,3.1327202E13,0E0,1.8757635E11,3.0886414E12,3.9474273E11,0E0,3.9778124E10,1.6833839E12,1.4691336E11,0E0,0E0,0E0,0E0,0E0,8.6484274E11,0E0,0E0,0E0,1.6626359E11,0E0,0E0],"parents":[2147483647,0,0,1,1,2,2,4,4,5,5,6,6,8,8,9,9,10,10,16,16,20,20],"right_children":[2,4,6,-1,8,10,12,-1,14,16,18,-1,-1,-1,-1,-1,20,-1,-1,-1,22,-1,-1],"split_conditions":[3.5610198E6,3.2206248E6,5.1819855E6,-1.5895769E4,5E0,4.1983795E6,1.9E1,-1.43259E3,3.807679E6,1E0,4.5471455E6,1.5479632E4,8.874804E3,-6.5157007E3,-1.6036537E3,-5.44071E3,1E1,3.6269326E3,6.660485E3,5.961783E3,4.092904E6,-9.645112E2,8.2289734E2],"split_indices":[3,4,3,0,1,4,0,0,4,0,4,0,0,0,0,0,0,0,0,0,5,0,0],"split_type":[0,0,0,0,0,0,0,0,0,0,0,0,0,0,0,0,0,0,0,0,0,0,0],"sum_hessian":[1.2E2,4.2E1,7.8E1,3.5E1,7E0,4.3E1,3.5E1,2E0,5E0,2.7E1,1.6E1,2.9E1,6E0,4E0,1E0,4E0,2.3E1,9E0,7E0,2E0,2.1E1,7E0,1.4E1],"tree_param":{"num_deleted":"0","num_feature":"6","num_nodes":"23","size_leaf_vector":"1"}},{"base_weights":[-7.0327997E2,-1.4103778E6,7.6659675E5,-1.5590318E4,-4.2315147E5,1.9118272E5,1.4485862E6,-1.4230399E3,-5.0702964E3,-1.6571947E4,5.2212084E5,1.4985506E4,6.742335E3,-5.3971836E3,9.31074E4,3.5942896E3,6.6022056E3,5.9220366E3,2.0816658E4,-9.5607184E2,8.15216E2],"categories":[],"categories_nodes":[],"categories_segments":[],"categories_sizes":[],"default_left":[0,0,0,0,0,0,0,0,0,0,0,0,0,0,0,0,0,0,0,0,0],"id":15,"left_children":[1,3,5,-1,7,9,11,-1,-1,13,15,-1,-1,-1,17,-1,-1,-1,19,-1,-1],"loss_changes":[1.3196003E14,5.650776E12,3.0724732E13,0E0,9.274655E10,3.033826E12,3.824702E11,0E0,0E0,1.6568458E12,1.4464844E11,0E0,0E0,0E0,8.5359316E11,0E0,0E0,0E0,1.6327911E11,0E0,0E0],"parents":[2147483647,0,0,1,1,2,2,4,4,5,5,6,6,9,9,10,10,14,14,18,18],"right_children":[2,4,6,-1,8,10,12,-1,-1,14,16,-1,-1,-1,18,-1,-1,-1,20,-1,-1],"split_conditions":[3.5610198E6,3.3705652E6,5.1819855E6,-1.5590318E4,5E0,4.1983795E6,2E1,-1.4230399E3,-5.0702964E3,1E0,4.5471455E6,1.4985506E4,6.742335E3,-5.3971836E3,1E1,3.5942896E3,6.6022056E3,5.9220366E3,4.092904E6,-9.5607184E2,8.15216E2],"split_indices":[3,4,3,0,1,4,0,0,0,0,4,0,0,0,0,0,0,0,5,0,0],"split_type":[0,0,0,0,0,0,0,0,0,0,0,0,0,0,0,0,0,0,0,0,0],"sum_hessian":[1.2E2,4.2E1,7.8E1,3.6E1,6E0,4.3E1,3.5E1,2E0,4E0,2.7E1,1.6E1,3.2E1,3E0,4E0,2.3E1,9E0,7E0,2E0,2.1E1,7E0,1.4E1],"tree_param":{"num_deleted":"0","num_feature":"6","num_nodes":"21","size_leaf_vector":"1"}},{"base_weights":[-6.117655E2,-1.3967875E6,7.5933975E5,-1.5589654E6,-4.9238862E5,1.8951138E5,1.4347039E6,-1.6838414E4,-1.12208E6,-1.4135532E3,-5.858405E5,-1.6392535E4,5.174995E5,1.5185137E4,8.705611E3,-1.190929E4,-2.1679475E3,-6.401972E3,-1.5702837E3,-5.3540063E3,9.2417164E4,3.230265E3,6.2132793E3,5.8825566E3,2.0602045E4,-9.4770685E2,8.07607E2],"categories":[],"categories_nodes":[],"categories_segments":[],"categories_sizes":[],"default_left":[0,0,0,0,0,0,0,0,0,0,0,0,0,0,0,0,0,0,0,0,0,0,0,0,0,0,0],"id":16,"left_children":[1,3,5,7,9,11,13,-1,15,-1,17,19,21,-1,-1,-1,-1,-1,-1,-1,23,-1,-1,-1,25,-1,-1],"loss_changes":[1.2944477E14,5.539342E12,3.0130592E13,7.4633445E10,1.7962592E11,2.9799806E12,3.8014655E11,0E0,4.2742055E11,0E0,3.932409E10,1.6307273E12,1.42556E11,0E0,0E0,0E0,0E0,0E0,0E0,0E0,8.424896E11,0E0,0E0,0E0,1.6034847E11,0E0,0E0],"parents":[2147483647,0,0,1,1,2,2,3,3,4,4,5,5,6,6,8,8,10,10,11,11,12,12,20,20,24,24],"right_children":[2,4,6,8,10,12,14,-1,16,-1,18,20,22,-1,-1,-1,-1,-1,-1,-1,24,-1,-1,-1,26,-1,-1],"split_conditions":[3.5610198E6,3.2206248E6,5.1819855E6,2.6370692E6,5E0,4.1983795E6,1.9E1,-1.6838414E4,3E0,-1.4135532E3,3.807679E6,1E0,4.3955905E6,1.5185137E4,8.705611E3,-1.190929E4,-2.1679475E3,-6.401972E3,-1.5702837E3,-5.3540063E3,1E1,3.230265E3,6.2132793E3,5.8825566E3,4.092904E6,-9.4770685E2,8.07607E2],"split_indices":[3,4,3,5,1,4,0,0,0,0,4,0,4,0,0,0,0,0,0,0,0,0,0,0,5,0,0],"split_type":[0,0,0,0,0,0,0,0,0,0,0,0,0,0,0,0,0,0,0,0,0,0,0,0,0,0,0],"sum_hessian":[1.2E2,4.2E1,7.8E1,3.5E1,7E0,4.3E1,3.5E1,2.5E1,1E1,2E0,5E0,2.7E1,1.6E1,2.9E1,6E0,9E0,1E0,4E0,1E0,4E0,2.3E1,7E0,9E0,2E0,2.1E1,7E0,1.4E1],"tree_param":{"num_deleted":"0","num_feature":"6","num_nodes":"27","size_leaf_vector":"1"}},{"base_weights":[-6.5996387E2,-1.3837569E6,7.521733E5,-1.5442345E6,-4.8863797E5,1.8783972E5,1.4210206E6,-1.6676504E4,-1.112139E6,-1.40413E3,-5.813108E5,-1.621467E4,5.128799E5,1.5038349E4,8.630993E3,-1.1802107E4,-2.1571074E3,-6.3507563E3,-1.5624325E3,-5.311174E3,9.173234E4,3.526902E3,6.49007E3,5.84334E3,2.0389738E4,-9.3941406E2,8.000703E2],"categories":[],"categories_nodes":[],"categories_segments":[],"categories_sizes":[],"default_left":[0,0,0,0,0,0,0,0,0,0,0,0,0,0,0,0,0,0,0,0,0,0,0,0,0,0,0],"id":17,"left_children":[1,3,5,7,9,11,13,-1,15,-1,17,19,21,-1,-1,-1,-1,-1,-1,-1,23,-1,-1,-1,25,-1,-1],"loss_changes":[1.2703102E14,5.422237E12,2.955187E13,6.5120764E10,1.7654428E11,2.9266543E12,3.653742E11,0E0,4.1665167E11,0E0,3.789593E10,1.6050225E12,1.4180627E11,0E0,0E0,0E0,0E0,0E0,0E0,0E0,8.315293E11,0E0,0E0,0E0,1.5747047E11,0E0,0E0],"parents":[2147483647,0,0,1,1,2,2,3,3,4,4,5,5,6,6,8,8,10,10,11,11,12,12,20,20,24,24],"right_children":[2,4,6,8,10,12,14,-1,16,-1,18,20,22,-1,-1,-1,-1,-1,-1,-1,24,-1,-1,-1,26,-1,-1],"split_conditions":[3.5610198E6,3.2206248E6,5.1819855E6,2.6370692E6,5E0,4.1983795E6,1.9E1,-1.6676504E4,3E0,-1.40413E3,3.807679E6,1E0,4.5471455E6,1.5038349E4,8.630993E3,-1.1802107E4,-2.1571074E3,-6.3507563E3,-1.5624325E3,-5.311174E3,1E1,3.526902E3,6.49007E3,5.84334E3,4.092904E6,-9.3941406E2,8.000703E2],"split_indices":[3,4,3,5,1,4,0,0,0,0,4,0,4,0,0,0,0,0,0,0,0,0,0,0,5,0,0],"split_type":[0,0,0,0,0,0,0,0,0,0,0,0,0,0,0,0,0,0,0,0,0,0,0,0,0,0,0],"sum_hessian":[1.2E2,4.2E1,7.8E1,3.5E1,7E0,4.3E1,3.5E1,2.5E1,1E1,2E0,5E0,2.7E1,1.6E1,2.9E1,6E0,9E0,1E0,4E0,1E0,4E0,2.3E1,9E0,7E0,2E0,2.1E1,7E0,1.4E1],"tree_param":{"num_deleted":"0","num_feature":"6","num_nodes":"27","size_leaf_vector":"1"}},{"base_weights":[-7.019432E2,-1.3708485E6,7.450829E5,-1.5149886E4,-4.1312953E5,1.8619794E5,1.4074678E6,-1.3947683E3,-4.946952E3,-1.60384375E4,5.083403E5,1.4558831E4,6.561742E3,-5.2686836E3,9.105274E4,3.4951592E3,6.433282E3,5.804383E3,2.017958E4,-9.311934E2,7.9260364E2],"categories":[],"categories_nodes":[],"categories_segments":[],"categories_sizes":[],"default_left":[0,0,0,0,0,0,0,0,0,0,0,0,0,0,0,0,0,0,0,0,0],"id":18,"left_children":[1,3,5,-1,7,9,11,-1,-1,13,15,-1,-1,-1,17,-1,-1,-1,19,-1,-1],"loss_changes":[1.2466337E14,5.310081E12,2.8983496E13,0E0,8.724637E10,2.874705E12,3.5415864E11,0E0,0E0,1.5797234E12,1.3961606E11,0E0,0E0,0E0,8.2071034E11,0E0,0E0,0E0,1.5464405E11,0E0,0E0],"parents":[2147483647,0,0,1,1,2,2,4,4,5,5,6,6,9,9,10,10,14,14,18,18],"right_children":[2,4,6,-1,8,10,12,-1,-1,14,16,-1,-1,-1,18,-1,-1,-1,20,-1,-1],"split_conditions":[3.5610198E6,3.3705652E6,5.1819855E6,-1.5149886E4,5E0,4.1983795E6,2E1,-1.3947683E3,-4.946952E3,1E0,4.5471455E6,1.4558831E4,6.561742E3,-5.2686836E3,1E1,3.4951592E3,6.433282E3,5.804383E3,4.092904E6,-9.311934E2,7.9260364E2],"split_indices":[3,4,3,0,1,4,0,0,0,0,4,0,0,0,0,0,0,0,5,0,0],"split_type":[0,0,0,0,0,0,0,0,0,0,0,0,0,0,0,0,0,0,0,0,0],"sum_hessian":[1.2E2,4.2E1,7.8E1,3.6E1,6E0,4.3E1,3.5E1,2E0,4E0,2.7E1,1.6E1,3.2E1,3E0,4E0,2.3E1,9E0,7E0,2E0,2.1E1,7E0,1.4E1],"tree_param":{"num_deleted":"0","num_feature":"6","num_nodes":"21","size_leaf_vector":"1"}},{"base_weights":[-6.126581E2,-1.3576398E6,7.3803006E5,-1.514914E6,-4.8020028E5,1.8457062E5,1.3939796E6,-1.637048E4,-1.088514E6,-1.38547E3,-5.7099356E5,-1.5863804E4,5.038408E5,1.4752239E4,8.466497E3,-1.1559538E4,-2.0705725E3,-6.2399688E3,-1.529885E3,-5.226534E3,9.037835E4,3.4637024E3,6.3769893E3,5.7656865E3,1.9971568E4,-9.23045E2,7.8520703E2],"categories":[],"categories_nodes":[],"categories_segments":[],"categories_sizes":[],"default_left":[0,0,0,0,0,0,0,0,0,0,0,0,0,0,0,0,0,0,0,0,0,0,0,0,0,0,0],"id":19,"left_children":[1,3,5,7,9,11,13,-1,15,-1,17,19,21,-1,-1,-1,-1,-1,-1,-1,23,-1,-1,-1,25,-1,-1],"loss_changes":[1.22287315E14,5.206482E12,2.8422986E13,9.286189E10,1.6904906E11,2.823673E12,3.518308E11,0E0,4.1455033E11,0E0,3.7469553E10,1.5548244E12,1.3745835E11,0E0,0E0,0E0,0E0,0E0,0E0,0E0,8.100314E11,0E0,0E0,0E0,1.5186849E11,0E0,0E0],"parents":[2147483647,0,0,1,1,2,2,3,3,4,4,5,5,6,6,8,8,10,10,11,11,12,12,20,20,24,24],"right_children":[2,4,6,8,10,12,14,-1,16,-1,18,20,22,-1,-1,-1,-1,-1,-1,-1,24,-1,-1,-1,26,-1,-1],"split_conditions":[3.5610198E6,3.2206248E6,5.1819855E6,2.6370692E6,5E0,4.1983795E6,1.9E1,-1.637048E4,3E0,-1.38547E3,3.807679E6,1E0,4.5471455E6,1.4752239E4,8.466497E3,-1.1559538E4,-2.0705725E3,-6.2399688E3,-1.529885E3,-5.226534E3,1E1,3.4637024E3,6.3769893E3,5.7656865E3,4.092904E6,-9.23045E2,7.8520703E2],"split_indices":[3,4,3,5,1,4,0,0,0,0,4,0,4,0,0,0,0,0,0,0,0,0,0,0,5,0,0],"split_type":[0,0,0,0,0,0,0,0,0,0,0,0,0,0,0,0,0,0,0,0,0,0,0,0,0,0,0],"sum_hessian":[1.2E2,4.2E1,7.8E1,3.5E1,7E0,4.3E1,3.5E1,2.5E1,1E1,2E0,5E0,2.7E1,1.6E1,2.9E1,6E0,9E0,1E0,4E0,1E0,4E0,2.3E1,9E0,7E0,2E0,2.1E1,7E0,1.4E1],"tree_param":{"num_deleted":"0","num_feature":"6","num_nodes":"27","size_leaf_vector":"1"}},{"base_weights":[-6.5354443E2,-1.3449739E6,7.310734E5,-1.5005982E6,-4.7654266E5,1.8295767E5,1.380685E6,-1.6213072E4,-1.078868E6,-1.3762333E3,-5.6657856E5,-1.5690857E4,4.9938128E5,1.4609637E4,8.393927E3,-1.1455504E4,-2.06022E3,-6.190049E3,-1.522235E3,-5.1847217E3,8.970904E4,3.1102478E3,6.0012837E3,5.72725E3,1.9765545E4,-9.1496875E2,7.778779E2],"categories":[],"categories_nodes":[],"categories_segments":[],"categories_sizes":[],"default_left":[0,0,0,0,0,0,0,0,0,0,0,0,0,0,0,0,0,0,0,0,0,0,0,0,0,0,0],"id":20,"left_children":[1,3,5,7,9,11,13,-1,15,-1,17,19,21,-1,-1,-1,-1,-1,-1,-1,23,-1,-1,-1,25,-1,-1],"loss_changes":[1.20008E14,5.096314E12,2.7876317E13,8.345826E10,1.6614464E11,2.7735475E12,3.3803154E11,0E0,4.0423024E11,0E0,3.6111647E10,1.5303184E12,1.3594316E11,0E0,0E0,0E0,0E0,0E0,0E0,0E0,7.9949156E11,0E0,0E0,0E0,1.4914267E11,0E0,0E0],"parents":[2147483647,0,0,1,1,2,2,3,3,4,4,5,5,6,6,8,8,10,10,11,11,12,12,20,20,24,24],"right_children":[2,4,6,8,10,12,14,-1,16,-1,18,20,22,-1,-1,-1,-1,-1,-1,-1,24,-1,-1,-1,26,-1,-1],"split_conditions":[3.5610198E6,3.2206248E6,5.1819855E6,2.6370692E6,5E0,4.1983795E6,1.9E1,-1.6213072E4,3E0,-1.3762333E3,3.807679E6,1E0,4.3955905E6,1.4609637E4,8.393927E3,-1.1455504E4,-2.06022E3,-6.190049E3,-1.522235E3,-5.1847217E3,1E1,3.1102478E3,6.0012837E3,5.72725E3,4.092904E6,-9.1496875E2,7.778779E2],"split_indices":[3,4,3,5,1,4,0,0,0,0,4,0,4,0,0,0,0,0,0,0,0,0,0,0,5,0,0],"split_type":[0,0,0,0,0,0,0,0,0,0,0,0,0,0,0,0,0,0,0,0,0,0,0,0,0,0,0],"sum_hessian":[1.2E2,4.2E1,7.8E1,3.5E1,7E0,4.3E1,3.5E1,2.5E1,1E1,2E0,5E0,2.7E1,1.6E1,2.9E1,6E0,9E0,1E0,4E0,1E0,4E0,2.3E1,7E0,9E0,2E0,2.1E1,7E0,1.4E1],"tree_param":{"num_deleted":"0","num_feature":"6","num_nodes":"27","size_leaf_vector":"1"}},{"base_weights":[-6.9906714E2,-1.3324269E6,7.241743E5,-1.4721863E4,-4.0335194E5,1.8134431E5,1.3675172E6,-1.3670582E3,-4.826692E3,-1.5519536E4,4.949233E5,1.41443E4,6.386077E3,-5.143244E3,8.904479E4,3.3987544E3,6.2686772E3,5.689067E3,1.9561592E4,-9.0696246E2,7.7061664E2],"categories":[],"categories_nodes":[],"categories_segments":[],"categories_sizes":[],"default_left":[0,0,0,0,0,0,0,0,0,0,0,0,0,0,0,0,0,0,0,0,0],"id":21,"left_children":[1,3,5,-1,7,9,11,-1,-1,13,15,-1,-1,-1,17,-1,-1,-1,19,-1,-1],"loss_changes":[1.1777033E14,4.989611E12,2.7340852E13,0E0,8.2063655E10,2.7239053E12,3.277555E11,0E0,0E0,1.5061995E12,1.3472393E11,0E0,0E0,0E0,7.8908745E11,0E0,0E0,0E0,1.4646555E11,0E0,0E0],"parents":[2147483647,0,0,1,1,2,2,4,4,5,5,6,6,9,9,10,10,14,14,18,18],"right_children":[2,4,6,-1,8,10,12,-1,-1,14,16,-1,-1,-1,18,-1,-1,-1,20,-1,-1],"split_conditions":[3.5610198E6,3.3705652E6,5.1819855E6,-1.4721863E4,5E0,4.1983795E6,2E1,-1.3670582E3,-4.826692E3,1E0,4.5471455E6,1.41443E4,6.386077E3,-5.143244E3,1E1,3.3987544E3,6.2686772E3,5.689067E3,4.092904E6,-9.0696246E2,7.7061664E2],"split_indices":[3,4,3,0,1,4,0,0,0,0,4,0,0,0,0,0,0,0,5,0,0],"split_type":[0,0,0,0,0,0,0,0,0,0,0,0,0,0,0,0,0,0,0,0,0],"sum_hessian":[1.2E2,4.2E1,7.8E1,3.6E1,6E0,4.3E1,3.5E1,2E0,4E0,2.7E1,1.6E1,3.2E1,3E0,4E0,2.3E1,9E0,7E0,2E0,2.1E1,7E0,1.4E1],"tree_param":{"num_deleted":"0","num_feature":"6","num_nodes":"21","size_leaf_vector":"1"}},{"base_weights":[-6.1205475E2,-1.3195891E6,7.1731994E5,-1.4721052E6,-4.6831797E5,1.797599E5,1.3544122E6,-1.5915622E4,-1.0559246E6,-1.357945E3,-5.565267E5,-1.5349643E4,4.9054272E5,1.4331681E4,8.23399E3,-1.1219908E4,-1.9763099E3,-6.082124E3,-1.49049E3,-5.102098E3,8.838579E4,3.3681633E3,6.213828E3,5.6511396E3,1.9359863E4,-8.9902625E2,7.634253E2],"categories":[],"categories_nodes":[],"categories_segments":[],"categories_sizes":[],"default_left":[0,0,0,0,0,0,0,0,0,0,0,0,0,0,0,0,0,0,0,0,0,0,0,0,0,0,0],"id":22,"left_children":[1,3,5,7,9,11,13,-1,15,-1,17,19,21,-1,-1,-1,-1,-1,-1,-1,23,-1,-1,-1,25,-1,-1],"loss_changes":[1.1552581E14,4.893377E12,2.6812084E13,1.092029E11,1.5907855E11,2.675544E12,3.254654E11,0E0,4.020062E11,0E0,3.571122E10,1.4824623E12,1.32638835E11,0E0,0E0,0E0,0E0,0E0,0E0,0E0,7.788181E11,0E0,0E0,0E0,1.438369E11,0E0,0E0],"parents":[2147483647,0,0,1,1,2,2,3,3,4,4,5,5,6,6,8,8,10,10,11,11,12,12,20,20,24,24],"right_children":[2,4,6,8,10,12,14,-1,16,-1,18,20,22,-1,-1,-1,-1,-1,-1,-1,24,-1,-1,-1,26,-1,-1],"split_conditions":[3.5610198E6,3.2206248E6,5.1819855E6,2.6370692E6,5E0,4.1983795E6,1.9E1,-1.5915622E4,3E0,-1.357945E3,3.807679E6,1E0,4.5471455E6,1.4331681E4,8.23399E3,-1.1219908E4,-1.9763099E3,-6.082124E3,-1.49049E3,-5.102098E3,1E1,3.3681633E3,6.213828E3,5.6511396E3,4.092904E6,-8.9902625E2,7.634253E2],"split_indices":[3,4,3,5,1,4,0,0,0,0,4,0,4,0,0,0,0,0,0,0,0,0,0,0,5,0,0],"split_type":[0,0,0,0,0,0,0,0,0,0,0,0,0,0,0,0,0,0,0,0,0,0,0,0,0,0,0],"sum_hessian":[1.2E2,4.2E1,7.8E1,3.5E1,7E0,4.3E1,3.5E1,2.5E1,1E1,2E0,5E0,2.7E1,1.6E1,2.9E1,6E0,9E0,1E0,4E0,1E0,4E0,2.3E1,9E0,7E0,2E0,2.1E1,7E0,1.4E1],"tree_param":{"num_deleted":"0","num_feature":"6","num_nodes":"27","size_leaf_vector":"1"}},{"base_weights":[-6.512221E2,-1.307278E6,7.1055894E5,-1.458193E6,-4.6475116E5,1.7818945E5,1.341495E6,-1.5762589E4,-1.04656494E6,-1.3488917E3,-5.522236E5,-1.5181429E4,4.8620094E5,1.4193144E4,8.1634136E3,-1.1118929E4,-1.9664287E3,-6.0334688E3,-1.4830375E3,-5.0612817E3,8.773171E4,3.0238218E3,5.8463584E3,5.613467E3,1.9160045E4,-8.9116E2,7.5629926E2],"categories":[],"categories_nodes":[],"categories_segments":[],"categories_sizes":[],"default_left":[0,0,0,0,0,0,0,0,0,0,0,0,0,0,0,0,0,0,0,0,0,0,0,0,0,0,0],"id":23,"left_children":[1,3,5,7,9,11,13,-1,15,-1,17,19,21,-1,-1,-1,-1,-1,-1,-1,23,-1,-1,-1,25,-1,-1],"loss_changes":[1.1337254E14,4.7897526E12,2.6296357E13,9.991671E10,1.5634176E11,2.6280408E12,3.1257212E11,0E0,3.9211395E11,0E0,3.441964E10,1.4590999E12,1.3081772E11,0E0,0E0,0E0,0E0,0E0,0E0,0E0,7.686821E11,0E0,0E0,0E0,1.4125523E11,0E0,0E0],"parents":[2147483647,0,0,1,1,2,2,3,3,4,4,5,5,6,6,8,8,10,10,11,11,12,12,20,20,24,24],"right_children":[2,4,6,8,10,12,14,-1,16,-1,18,20,22,-1,-1,-1,-1,-1,-1,-1,24,-1,-1,-1,26,-1,-1],"split_conditions":[3.5610198E6,3.2206248E6,5.1819855E6,2.6370692E6,5E0,4.1983795E6,1.9E1,-1.5762589E4,3E0,-1.3488917E3,3.807679E6,1E0,4.3955905E6,1.4193144E4,8.1634136E3,-1.1118929E4,-1.9664287E3,-6.0334688E3,-1.4830375E3,-5.0612817E3,1E1,3.0238218E3,5.8463584E3,5.613467E3,4.092904E6,-8.9116E2,7.5629926E2],"split_indices":[3,4,3,5,1,4,0,0,0,0,4,0,4,0,0,0,0,0,0,0,0,0,0,0,5,0,0],"split_type":[0,0,0,0,0,0,0,0,0,0,0,0,0,0,0,0,0,0,0,0,0,0,0,0,0,0,0],"sum_hessian":[1.2E2,4.2E1,7.8E1,3.5E1,7E0,4.3E1,3.5E1,2.5E1,1E1,2E0,5E0,2.7E1,1.6E1,2.9E1,6E0,9E0,1E0,4E0,1E0,4E0,2.3E1,7E0,9E0,2E0,2.1E1,7E0,1.4E1],"tree_param":{"num_deleted":"0","num_feature":"6","num_nodes":"27","size_leaf_vector":"1"}},{"base_weights":[-6.9486053E2,-1.2950824E6,7.0385394E5,-1.4444124E6,-4.6121178E5,1.7661861E5,1.3287012E6,-1.5611026E4,-1.0372888E6,-1.3398982E3,-5.479541E5,-1.501467E4,4.8186056E5,1.3741564E4,6.215201E3,-1.1018857E4,-1.9565962E3,-6.465942E3,-2.3378267E3,-5.020792E3,8.708272E4,3.3049905E3,6.108299E3,5.576043E3,1.8962375E4,-8.833616E2,7.49241E2],"categories":[],"categories_nodes":[],"categories_segments":[],"categories_sizes":[],"default_left":[0,0,0,0,0,0,0,0,0,0,0,0,0,0,0,0,0,0,0,0,0,0,0,0,0,0,0],"id":24,"left_children":[1,3,5,7,9,11,13,-1,15,-1,17,19,21,-1,-1,-1,-1,-1,-1,-1,23,-1,-1,-1,25,-1,-1],"loss_changes":[1.1125861E14,4.688259E12,2.5791212E13,9.094929E10,1.5365177E11,2.5809938E12,3.031559E11,0E0,3.8243874E11,0E0,3.477668E10,1.4361069E12,1.2997781E11,0E0,0E0,0E0,0E0,0E0,0E0,0E0,7.586768E11,0E0,0E0,0E0,1.3871995E11,0E0,0E0],"parents":[2147483647,0,0,1,1,2,2,3,3,4,4,5,5,6,6,8,8,10,10,11,11,12,12,20,20,24,24],"right_children":[2,4,6,8,10,12,14,-1,16,-1,18,20,22,-1,-1,-1,-1,-1,-1,-1,24,-1,-1,-1,26,-1,-1],"split_conditions":[3.5610198E6,3.2206248E6,5.1819855E6,2.6370692E6,5E0,4.1983795E6,2E1,-1.5611026E4,3E0,-1.3398982E3,1E1,1E0,4.5471455E6,1.3741564E4,6.215201E3,-1.1018857E4,-1.9565962E3,-6.465942E3,-2.3378267E3,-5.020792E3,1E1,3.3049905E3,6.108299E3,5.576043E3,4.092904E6,-8.833616E2,7.49241E2],"split_indices":[3,4,3,5,1,4,0,0,0,0,0,0,4,0,0,0,0,0,0,0,0,0,0,0,5,0,0],"split_type":[0,0,0,0,0,0,0,0,0,0,0,0,0,0,0,0,0,0,0,0,0,0,0,0,0,0,0],"sum_hessian":[1.2E2,4.2E1,7.8E1,3.5E1,7E0,4.3E1,3.5E1,2.5E1,1E1,2E0,5E0,2.7E1,1.6E1,3.2E1,3E0,9E0,1E0,3E0,2E0,4E0,2.3E1,9E0,7E0,2E0,2.1E1,7E0,1.4E1],"tree_param":{"num_deleted":"0","num_feature":"6","num_nodes":"27","size_leaf_vector":"1"}},{"base_weights":[-7.617986E2,-1.2830322E6,6.971925E5,-1.4171348E4,-3.9091444E5,1.7507588E5,1.3159686E6,-1.330965E3,-4.674223E3,-1.4849518E4,4.775956E5,1.3923109E4,8.007913E3,-4.980626E3,8.64386E4,3.2752456E3,6.054849E3,5.53887E3,1.8766613E4,-8.756331E2,7.422479E2],"categories":[],"categories_nodes":[],"categories_segments":[],"categories_sizes":[],"default_left":[0,0,0,0,0,0,0,0,0,0,0,0,0,0,0,0,0,0,0,0,0],"id":25,"left_children":[1,3,5,-1,7,9,11,-1,-1,13,15,-1,-1,-1,17,-1,-1,-1,19,-1,-1],"loss_changes":[1.0918543E14,4.59033E12,2.52924E13,0E0,7.5863425E10,2.5351637E12,3.0092034E11,0E0,0E0,1.4134768E12,1.279614E11,0E0,0E0,0E0,7.4880136E11,0E0,0E0,0E0,1.36230396E11,0E0,0E0],"parents":[2147483647,0,0,1,1,2,2,4,4,5,5,6,6,9,9,10,10,14,14,18,18],"right_children":[2,4,6,-1,8,10,12,-1,-1,14,16,-1,-1,-1,18,-1,-1,-1,20,-1,-1],"split_conditions":[3.5610198E6,3.3705652E6,5.1819855E6,-1.4171348E4,5E0,4.1983795E6,1.9E1,-1.330965E3,-4.674223E3,1E0,4.5471455E6,1.3923109E4,8.007913E3,-4.980626E3,1E1,3.2752456E3,6.054849E3,5.53887E3,4.092904E6,-8.756331E2,7.422479E2],"split_indices":[3,4,3,0,1,4,0,0,0,0,4,0,0,0,0,0,0,0,5,0,0],"split_type":[0,0,0,0,0,0,0,0,0,0,0,0,0,0,0,0,0,0,0,0,0],"sum_hessian":[1.2E2,4.2E1,7.8E1,3.6E1,6E0,4.3E1,3.5E1,2E0,4E0,2.7E1,1.6E1,2.9E1,6E0,4E0,2.3E1,9E0,7E0,2E0,2.1E1,7E0,1.4E1],"tree_param":{"num_deleted":"0","num_feature":"6","num_nodes":"21","size_leaf_vector":"1"}},{"base_weights":[-6.590486E2,-1.2706712E6,6.9062175E5,-1.4169848E6,-4.534263E5,1.4731894E5,1.2729401E6,-1.5324658E4,-1.0152126E6,-1.3220917E3,-5.384638E5,-4.94078E3,2.2783645E5,1.37885205E4,7.7846196E3,-1.0792147E4,-1.8759574E3,-6.3586475E3,-2.2910798E3,6.9212188E3,1.5285811E5,1.857292E4,3.6835166E3,-8.679703E2,7.353203E2],"categories":[],"categories_nodes":[],"categories_segments":[],"categories_sizes":[],"default_left":[0,0,0,0,0,0,0,0,0,0,0,0,0,0,0,0,0,0,0,0,0,0,0,0,0],"id":26,"left_children":[1,3,5,7,9,11,13,-1,15,-1,17,-1,19,-1,-1,-1,-1,-1,-1,-1,21,23,-1,-1,-1],"loss_changes":[1.0710769E14,4.499188E12,2.4806108E13,1.1451289E11,1.4733423E11,2.2816039E12,9.167155E11,0E0,3.8020527E11,0E0,3.5107635E10,0E0,1.217035E12,0E0,0E0,0E0,0E0,0E0,0E0,0E0,9.770367E11,1.3378522E11,0E0,0E0,0E0],"parents":[2147483647,0,0,1,1,2,2,3,3,4,4,5,5,6,6,8,8,10,10,12,12,20,20,21,21],"right_children":[2,4,6,8,10,12,14,-1,16,-1,18,-1,20,-1,-1,-1,-1,-1,-1,-1,22,24,-1,-1,-1],"split_conditions":[3.5610198E6,3.2206248E6,5.1296465E6,2.6370692E6,5E0,1E0,1.9E1,-1.5324658E4,3E0,-1.3220917E3,1E1,-4.94078E3,1E1,1.37885205E4,7.7846196E3,-1.0792147E4,-1.8759574E3,-6.3586475E3,-2.2910798E3,6.9212188E3,4.1983795E6,4.092904E6,3.6835166E3,-8.679703E2,7.353203E2],"split_indices":[3,4,3,5,1,0,0,0,0,0,0,0,0,0,0,0,0,0,0,0,4,5,0,0,0],"split_type":[0,0,0,0,0,0,0,0,0,0,0,0,0,0,0,0,0,0,0,0,0,0,0,0,0],"sum_hessian":[1.2E2,4.2E1,7.8E1,3.5E1,7E0,4.1E1,3.7E1,2.5E1,1E1,2E0,5E0,4E0,3.7E1,2.9E1,8E0,9E0,1E0,3E0,2E0,4E0,3.3E1,2.1E1,1.2E1,7E0,1.4E1],"tree_param":{"num_deleted":"0","num_feature":"6","num_nodes":"25","size_leaf_vector":"1"}},{"base_weights":[-7.4215393E2,-1.2588474E6,6.840587E5,-1.4035924E6,-4.5013853E5,1.7191256E5,1.2910134E6,-1.5177305E4,-1.00621206E6,-1.3132782E3,-5.345208E5,-1.4624974E4,4.6903834E5,1.3350431E4,6.050145E3,-1.0695018E4,-1.8665775E3,-6.3109565E3,-2.2758066E3,-4.901254E3,8.504699E4,2.9075562E3,5.647607E3,5.455803E3,1.8381217E4,-1.4867274E3,5.258304E2],"categories":[],"categories_nodes":[],"categories_segments":[],"categories_sizes":[],"default_left":[0,0,0,0,0,0,0,0,0,0,0,0,0,0,0,0,0,0,0,0,0,0,0,0,0,0,0],"id":27,"left_children":[1,3,5,7,9,11,13,-1,15,-1,17,19,21,-1,-1,-1,-1,-1,-1,-1,23,-1,-1,-1,25,-1,-1],"loss_changes":[1.05108856E14,4.40162E12,2.4335167E13,1.0566291E11,1.4501832E11,2.445565E12,2.7963844E11,0E0,3.7093166E11,0E0,3.4231157E10,1.3687174E12,1.2590829E11,0E0,0E0,0E0,0E0,0E0,0E0,0E0,7.26815E11,0E0,0E0,0E0,1.3351578E11,0E0,0E0],"parents":[2147483647,0,0,1,1,2,2,3,3,4,4,5,5,6,6,8,8,10,10,11,11,12,12,20,20,24,24],"right_children":[2,4,6,8,10,12,14,-1,16,-1,18,20,22,-1,-1,-1,-1,-1,-1,-1,24,-1,-1,-1,26,-1,-1],"split_conditions":[3.5610198E6,3.2206248E6,5.1819855E6,2.6370692E6,5E0,4.1983795E6,2E1,-1.5177305E4,3E0,-1.3132782E3,1E1,1E0,4.3955905E6,1.3350431E4,6.050145E3,-1.0695018E4,-1.8665775E3,-6.3109565E3,-2.2758066E3,-4.901254E3,1E1,2.9075562E3,5.647607E3,5.455803E3,3.8731755E6,-1.4867274E3,5.258304E2],"split_indices":[3,4,3,5,1,4,0,0,0,0,0,0,4,0,0,0,0,0,0,0,0,0,0,0,4,0,0],"split_type":[0,0,0,0,0,0,0,0,0,0,0,0,0,0,0,0,0,0,0,0,0,0,0,0,0,0,0],"sum_hessian":[1.2E2,4.2E1,7.8E1,3.5E1,7E0,4.3E1,3.5E1,2.5E1,1E1,2E0,5E0,2.7E1,1.6E1,3.2E1,3E0,9E0,1E0,3E0,2E0,4E0,2.3E1,7E0,9E0,2E0,2.1E1,3E0,1.8E1],"tree_param":{"num_deleted":"0","num_feature":"6","num_nodes":"27","size_leaf_vector":"1"}},{"base_weights":[-8.18125E2,-1.2471342E6,6.775668E5,-1.3770669E6,-3.821855E5,1.4463952E5,1.248761E6,-1.5016716E4,-1.031514E4,-1.3045233E3,-4.567883E3,-4.862044E3,2.2383898E5,1.3526177E4,7.638206E3,6.8214365E3,1.4985773E5,1.8153795E4,3.612138E3,-1.4755768E3,5.208496E2],"categories":[],"categories_nodes":[],"categories_segments":[],"categories_sizes":[],"default_left":[0,0,0,0,0,0,0,0,0,0,0,0,0,0,0,0,0,0,0,0,0],"id":28,"left_children":[1,3,5,7,9,11,13,-1,-1,-1,-1,-1,15,-1,-1,-1,17,19,-1,-1,-1],"loss_changes":[1.03148346E14,4.3062626E12,2.3867377E13,4.413666E10,7.187091E10,2.2072567E12,8.806906E11,0E0,0E0,0E0,0E0,0E0,1.186202E12,0E0,0E0,0E0,9.3988127E11,1.3138677E11,0E0,0E0,0E0],"parents":[2147483647,0,0,1,1,2,2,3,3,4,4,5,5,6,6,12,12,16,16,17,17],"right_children":[2,4,6,8,10,12,14,-1,-1,-1,-1,-1,16,-1,-1,-1,18,20,-1,-1,-1],"split_conditions":[3.5610198E6,3.3705652E6,5.1296465E6,2.3862732E6,5E0,1E0,1.9E1,-1.5016716E4,-1.031514E4,-1.3045233E3,-4.567883E3,-4.862044E3,1E1,1.3526177E4,7.638206E3,6.8214365E3,4.1983795E6,3.8731755E6,3.612138E3,-1.4755768E3,5.208496E2],"split_indices":[3,4,3,4,1,0,0,0,0,0,0,0,0,0,0,0,4,4,0,0,0],"split_type":[0,0,0,0,0,0,0,0,0,0,0,0,0,0,0,0,0,0,0,0,0],"sum_hessian":[1.2E2,4.2E1,7.8E1,3.6E1,6E0,4.1E1,3.7E1,2.4E1,1.2E1,2E0,4E0,4E0,3.7E1,2.9E1,8E0,4E0,3.3E1,2.1E1,1.2E1,3E0,1.8E1],"tree_param":{"num_deleted":"0","num_feature":"6","num_nodes":"21","size_leaf_vector":"1"}},{"base_weights":[-8.546622E2,-1.2353885E6,6.711176E5,-1.377164E6,-4.4297512E5,1.6875586E5,1.2664731E6,-1.489602E4,-9.862048E5,-1.2958267E3,-5.258422E5,-1.4462554E4,4.6060053E5,1.3395426E4,7.723935E3,-1.0491819E4,-1.7821613E3,-6.214996E3,-2.2301816E3,-4.823148E3,8.360927E4,3.1484634E3,5.8521816E3,5.373953E3,1.7928932E4,-8.6452124E2,7.240357E2],"categories":[],"categories_nodes":[],"categories_segments":[],"categories_sizes":[],"default_left":[0,0,0,0,0,0,0,0,0,0,0,0,0,0,0,0,0,0,0,0,0,0,0,0,0,0,0],"id":29,"left_children":[1,3,5,7,9,11,13,-1,15,-1,17,19,21,-1,-1,-1,-1,-1,-1,-1,23,-1,-1,-1,25,-1,-1],"loss_changes":[1.01207364E14,4.2207784E12,2.34139E13,1.1345592E11,1.3961934E11,2.3593993E12,2.6502549E11,0E0,3.7275304E11,0E0,3.519847E10,1.3250535E12,1.2452653E11,0E0,0E0,0E0,0E0,0E0,0E0,0E0,7.056808E11,0E0,0E0,0E0,1.3135408E11,0E0,0E0],"parents":[2147483647,0,0,1,1,2,2,3,3,4,4,5,5,6,6,8,8,10,10,11,11,12,12,20,20,24,24],"right_children":[2,4,6,8,10,12,14,-1,16,-1,18,20,22,-1,-1,-1,-1,-1,-1,-1,24,-1,-1,-1,26,-1,-1],"split_conditions":[3.5610198E6,3.2206248E6,5.1819855E6,2.6370692E6,5E0,4.1983795E6,1.9E1,-1.489602E4,3E0,-1.2958267E3,1E1,1E0,4.5471455E6,1.3395426E4,7.723935E3,-1.0491819E4,-1.7821613E3,-6.214996E3,-2.2301816E3,-4.823148E3,1E1,3.1484634E3,5.8521816E3,5.373953E3,4.092904E6,-8.6452124E2,7.240357E2],"split_indices":[3,4,3,5,1,4,0,0,0,0,0,0,4,0,0,0,0,0,0,0,0,0,0,0,5,0,0],"split_type":[0,0,0,0,0,0,0,0,0,0,0,0,0,0,0,0,0,0,0,0,0,0,0,0,0,0,0],"sum_hessian":[1.2E2,4.2E1,7.8E1,3.5E1,7E0,4.3E1,3.5E1,2.5E1,1E1,2E0,5E0,2.7E1,1.6E1,2.9E1,6E0,9E0,1E0,3E0,2E0,4E0,2.3E1,9E0,7E0,2E0,2.1E1,7E0,1.4E1],"tree_param":{"num_deleted":"0","num_feature":"6","num_nodes":"27","size_leaf_vector":"1"}},{"base_weights":[-8.988647E2,-1.223893E6,6.647929E5,-1.3641471E6,-4.39763E5,1.4203797E5,1.2250801E6,-1.4752788E4,-9.774586E5,-1.2871884E3,-5.2199125E5,-4.784562E3,2.199441E5,1.3265936E4,7.505815E3,-1.0397395E4,-1.77325E3,-6.168384E3,-2.2153132E3,6.721961E3,1.469675E5,1.7743273E4,3.5434946E3,-1.4659694E3,5.1407355E2],"categories":[],"categories_nodes":[],"categories_segments":[],"categories_sizes":[],"default_left":[0,0,0,0,0,0,0,0,0,0,0,0,0,0,0,0,0,0,0,0,0,0,0,0,0],"id":30,"left_children":[1,3,5,7,9,11,13,-1,15,-1,17,-1,19,-1,-1,-1,-1,-1,-1,-1,21,23,-1,-1,-1],"loss_changes":[9.932422E13,4.1291287E12,2.296453E13,1.0502118E11,1.3742283E11,2.135526E12,8.346707E11,0E0,3.6379086E11,0E0,3.4337587E10,0E0,1.155354E12,0E0,0E0,0E0,0E0,0E0,0E0,0E0,9.048709E11,1.2924813E11,0E0,0E0,0E0],"parents":[2147483647,0,0,1,1,2,2,3,3,4,4,5,5,6,6,8,8,10,10,12,12,20,20,21,21],"right_children":[2,4,6,8,10,12,14,-1,16,-1,18,-1,20,-1,-1,-1,-1,-1,-1,-1,22,24,-1,-1,-1],"split_conditions":[3.5610198E6,3.2206248E6,5.1296465E6,2.6370692E6,5E0,1E0,1.9E1,-1.4752788E4,3E0,-1.2871884E3,1E1,-4.784562E3,1E1,1.3265936E4,7.505815E3,-1.0397395E4,-1.77325E3,-6.168384E3,-2.2153132E3,6.721961E3,4.1983795E6,3.8731755E6,3.5434946E3,-1.4659694E3,5.1407355E2],"split_indices":[3,4,3,5,1,0,0,0,0,0,0,0,0,0,0,0,0,0,0,0,4,4,0,0,0],"split_type":[0,0,0,0,0,0,0,0,0,0,0,0,0,0,0,0,0,0,0,0,0,0,0,0,0],"sum_hessian":[1.2E2,4.2E1,7.8E1,3.5E1,7E0,4.1E1,3.7E1,2.5E1,1E1,2E0,5E0,4E0,3.7E1,2.9E1,8E0,9E0,1E0,3E0,2E0,4E0,3.3E1,2.1E1,1.2E1,3E0,1.8E1],"tree_param":{"num_deleted":"0","num_feature":"6","num_nodes":"25","size_leaf_vector":"1"}},{"base_weights":[-9.8322833E2,-1.2125051E6,6.584652E5,-1.3384359E6,-3.7365622E5,1.6568817E5,1.2424575E6,-1.4608876E4,-9.999951E3,-1.2786066E3,-4.464023E3,-1.427325E4,4.5234884E5,1.284702E4,5.83326E3,-4.7462856E3,8.2228836E4,2.7919556E3,5.456366E3,5.293313E3,1.7522637E4,-8.589794E2,7.15121E2],"categories":[],"categories_nodes":[],"categories_segments":[],"categories_sizes":[],"default_left":[0,0,0,0,0,0,0,0,0,0,0,0,0,0,0,0,0,0,0,0,0,0,0],"id":31,"left_children":[1,3,5,7,9,11,13,-1,-1,-1,-1,15,17,-1,-1,-1,19,-1,-1,-1,21,-1,-1],"loss_changes":[9.746968E13,4.0422689E12,2.2528599E13,7.2498545E10,6.808738E10,2.2763227E12,2.530088E11,0E0,0E0,0E0,0E0,1.2829354E12,1.2226291E11,0E0,0E0,0E0,6.8505194E11,0E0,0E0,0E0,1.2898241E11,0E0,0E0],"parents":[2147483647,0,0,1,1,2,2,3,3,4,4,5,5,6,6,11,11,12,12,16,16,20,20],"right_children":[2,4,6,8,10,12,14,-1,-1,-1,-1,16,18,-1,-1,-1,20,-1,-1,-1,22,-1,-1],"split_conditions":[3.5610198E6,3.3705652E6,5.1819855E6,2.3862732E6,5E0,4.1983795E6,2E1,-1.4608876E4,-9.999951E3,-1.2786066E3,-4.464023E3,1E0,4.3955905E6,1.284702E4,5.83326E3,-4.7462856E3,1E1,2.7919556E3,5.456366E3,5.293313E3,4.092904E6,-8.589794E2,7.15121E2],"split_indices":[3,4,3,4,1,4,0,0,0,0,0,0,4,0,0,0,0,0,0,0,5,0,0],"split_type":[0,0,0,0,0,0,0,0,0,0,0,0,0,0,0,0,0,0,0,0,0,0,0],"sum_hessian":[1.2E2,4.2E1,7.8E1,3.6E1,6E0,4.3E1,3.5E1,2.4E1,1.2E1,2E0,4E0,2.7E1,1.6E1,3.2E1,3E0,4E0,2.3E1,7E0,9E0,2E0,2.1E1,7E0,1.4E1],"tree_param":{"num_deleted":"0","num_feature":"6","num_nodes":"23","size_leaf_vector":"1"}},{"base_weights":[-9.9832745E2,-1.2010859E6,6.522265E5,-1.3384586E6,-4.3277256E5,1.3945547E5,1.2018096E6,-1.4479327E4,-9.5802344E5,-1.2700834E3,-5.135259E5,-4.708316E3,2.1608653E5,1.3013511E4,7.364701E3,-1.019999E4,-1.6913387E3,-6.0748E3,-2.170785E3,6.625185E3,1.4407928E5,1.7340955E4,3.474765E3,-1.4564019E3,5.0740094E2],"categories":[],"categories_nodes":[],"categories_segments":[],"categories_sizes":[],"default_left":[0,0,0,0,0,0,0,0,0,0,0,0,0,0,0,0,0,0,0,0,0,0,0,0,0],"id":32,"left_children":[1,3,5,7,9,11,13,-1,15,-1,17,-1,19,-1,-1,-1,-1,-1,-1,-1,21,23,-1,-1,-1],"loss_changes":[9.5638545E13,3.9592007E12,2.209541E13,1.1216827E11,1.3230971E11,2.0659518E12,8.0177896E11,0E0,3.6529452E11,0E0,3.524395E10,0E0,1.1261056E12,0E0,0E0,0E0,0E0,0E0,0E0,0E0,8.70434E11,1.27145255E11,0E0,0E0,0E0],"parents":[2147483647,0,0,1,1,2,2,3,3,4,4,5,5,6,6,8,8,10,10,12,12,20,20,21,21],"right_children":[2,4,6,8,10,12,14,-1,16,-1,18,-1,20,-1,-1,-1,-1,-1,-1,-1,22,24,-1,-1,-1],"split_conditions":[3.5610198E6,3.2206248E6,5.1296465E6,2.6370692E6,5E0,1E0,1.9E1,-1.4479327E4,3E0,-1.2700834E3,1E1,-4.708316E3,1E1,1.3013511E4,7.364701E3,-1.019999E4,-1.6913387E3,-6.0748E3,-2.170785E3,6.625185E3,4.1983795E6,3.8731755E6,3.474765E3,-1.4564019E3,5.0740094E2],"split_indices":[3,4,3,5,1,0,0,0,0,0,0,0,0,0,0,0,0,0,0,0,4,4,0,0,0],"split_type":[0,0,0,0,0,0,0,0,0,0,0,0,0,0,0,0,0,0,0,0,0,0,0,0,0],"sum_hessian":[1.2E2,4.2E1,7.8E1,3.5E1,7E0,4.1E1,3.7E1,2.5E1,1E1,2E0,5E0,4E0,3.7E1,2.9E1,8E0,9E0,1E0,3E0,2E0,4E0,3.3E1,2.1E1,1.2E1,3E0,1.8E1],"tree_param":{"num_deleted":"0","num_feature":"6","num_nodes":"25","size_leaf_vector":"1"}},{"base_weights":[-1.0798296E3,-1.1899096E6,6.460184E5,-1.3132422E6,-3.6802134E5,1.6266288E5,1.2188414E6,-1.433988E4,-9.800203E3,-1.2616166E3,-4.395329E5,-1.4086875E4,4.4421172E5,1.2601388E4,5.734275E3,-4.8244175E3,-1.3394874E3,-4.67065E3,8.087052E4,3.0265034E3,5.656369E3,5.2138564E3,1.7124342E4,-8.534487E2,7.0632965E2],"categories":[],"categories_nodes":[],"categories_segments":[],"categories_sizes":[],"default_left":[0,0,0,0,0,0,0,0,0,0,0,0,0,0,0,0,0,0,0,0,0,0,0,0,0],"id":33,"left_children":[1,3,5,7,9,11,13,-1,-1,-1,15,17,19,-1,-1,-1,-1,-1,21,-1,-1,-1,23,-1,-1],"loss_changes":[9.385275E13,3.8754195E12,2.1675029E13,8.336179E10,6.5618117E10,2.1958598E12,2.3694043E11,0E0,0E0,0E0,9.389343E8,1.2421532E12,1.2102481E11,0E0,0E0,0E0,0E0,0E0,6.6501935E11,0E0,0E0,0E0,1.2665388E11,0E0,0E0],"parents":[2147483647,0,0,1,1,2,2,3,3,4,4,5,5,6,6,10,10,11,11,12,12,18,18,22,22],"right_children":[2,4,6,8,10,12,14,-1,-1,-1,16,18,20,-1,-1,-1,-1,-1,22,-1,-1,-1,24,-1,-1],"split_conditions":[3.5610198E6,3.3705652E6,5.1819855E6,2.3862732E6,5E0,4.1983795E6,2E1,-1.433988E4,-9.800203E3,-1.2616166E3,3.807679E6,1E0,4.5471455E6,1.2601388E4,5.734275E3,-4.8244175E3,-1.3394874E3,-4.67065E3,1E1,3.0265034E3,5.656369E3,5.2138564E3,4.092904E6,-8.534487E2,7.0632965E2],"split_indices":[3,4,3,4,1,4,0,0,0,0,4,0,4,0,0,0,0,0,0,0,0,0,5,0,0],"split_type":[0,0,0,0,0,0,0,0,0,0,0,0,0,0,0,0,0,0,0,0,0,0,0,0,0],"sum_hessian":[1.2E2,4.2E1,7.8E1,3.6E1,6E0,4.3E1,3.5E1,2.4E1,1.2E1,2E0,4E0,2.7E1,1.6E1,3.2E1,3E0,3E0,1E0,4E0,2.3E1,9E0,7E0,2E0,2.1E1,7E0,1.4E1],"tree_param":{"num_deleted":"0","num_feature":"6","num_nodes":"25","size_leaf_vector":"1"}},{"base_weights":[-1.1033378E3,-1.1787445E6,6.399052E5,-1.3132521E6,-4.261173E5,1.3694806E5,1.1789656E6,-1.4210949E4,-9.389641E5,-1.2532067E3,-5.054961E5,-4.633284E3,2.123279E5,1.2765898E4,7.225549E3,-1.0006368E4,-1.6111825E3,-5.980616E3,-2.1357666E3,6.528703E3,1.4129733E5,1.6946477E4,3.408682E3,-1.4468756E3,5.0082776E2],"categories":[],"categories_nodes":[],"categories_segments":[],"categories_sizes":[],"default_left":[0,0,0,0,0,0,0,0,0,0,0,0,0,0,0,0,0,0,0,0,0,0,0,0,0],"id":34,"left_children":[1,3,5,7,9,11,13,-1,15,-1,17,-1,19,-1,-1,-1,-1,-1,-1,-1,21,23,-1,-1,-1],"loss_changes":[9.209452E13,3.7934711E12,2.1257358E13,1.1875752E11,1.2766583E11,1.998825E12,7.707537E11,0E0,3.6646997E11,0E0,3.439801E10,0E0,1.09684654E12,0E0,0E0,0E0,0E0,0E0,0E0,0E0,8.379951E11,1.2507734E11,0E0,0E0,0E0],"parents":[2147483647,0,0,1,1,2,2,3,3,4,4,5,5,6,6,8,8,10,10,12,12,20,20,21,21],"right_children":[2,4,6,8,10,12,14,-1,16,-1,18,-1,20,-1,-1,-1,-1,-1,-1,-1,22,24,-1,-1,-1],"split_conditions":[3.5610198E6,3.2206248E6,5.1296465E6,2.6370692E6,5E0,1E0,1.9E1,-1.4210949E4,3E0,-1.2532067E3,1E1,-4.633284E3,1E1,1.2765898E4,7.225549E3,-1.0006368E4,-1.6111825E3,-5.980616E3,-2.1357666E3,6.528703E3,4.1983795E6,3.8731755E6,3.408682E3,-1.4468756E3,5.0082776E2],"split_indices":[3,4,3,5,1,0,0,0,0,0,0,0,0,0,0,0,0,0,0,0,4,4,0,0,0],"split_type":[0,0,0,0,0,0,0,0,0,0,0,0,0,0,0,0,0,0,0,0,0,0,0,0,0],"sum_hessian":[1.2E2,4.2E1,7.8E1,3.5E1,7E0,4.1E1,3.7E1,2.5E1,1E1,2E0,5E0,4E0,3.7E1,2.9E1,8E0,9E0,1E0,3E0,2E0,4E0,3.3E1,2.1E1,1.2E1,3E0,1.8E1],"tree_param":{"num_deleted":"0","num_feature":"6","num_nodes":"25","size_leaf_vector":"1"}},{"base_weights":[-1.1819452E3,-1.1677756E6,6.338144E5,-1.288521E6,-3.6272494E5,1.597061E5,1.1956741E6,-1.4075875E4,-9.604299E3,-1.2448516E3,-4.331238E5,-1.3903107E4,4.362562E5,1.2642495E4,7.309693E3,-4.7529917E3,-1.3221112E3,-4.5962183E3,7.953425E4,2.9685884E3,5.559708E3,5.135573E3,1.6734092E4,-8.479275E2,6.976613E2],"categories":[],"categories_nodes":[],"categories_segments":[],"categories_sizes":[],"default_left":[0,0,0,0,0,0,0,0,0,0,0,0,0,0,0,0,0,0,0,0,0,0,0,0,0],"id":35,"left_children":[1,3,5,7,9,11,13,-1,-1,-1,15,17,19,-1,-1,-1,-1,-1,21,-1,-1,-1,23,-1,-1],"loss_changes":[9.037486E13,3.7124875E12,2.0853247E13,9.350362E10,6.3485116E10,2.1185772E12,2.2309922E11,0E0,0E0,0E0,6.1577626E8,1.2026654E12,1.1864978E11,0E0,0E0,0E0,0E0,0E0,6.4556735E11,0E0,0E0,0E0,1.2436753E11,0E0,0E0],"parents":[2147483647,0,0,1,1,2,2,3,3,4,4,5,5,6,6,10,10,11,11,12,12,18,18,22,22],"right_children":[2,4,6,8,10,12,14,-1,-1,-1,16,18,20,-1,-1,-1,-1,-1,22,-1,-1,-1,24,-1,-1],"split_conditions":[3.5610198E6,3.3705652E6,5.1819855E6,2.3862732E6,5E0,4.1983795E6,1.9E1,-1.4075875E4,-9.604299E3,-1.2448516E3,3.807679E6,1E0,4.5471455E6,1.2642495E4,7.309693E3,-4.7529917E3,-1.3221112E3,-4.5962183E3,1E1,2.9685884E3,5.559708E3,5.135573E3,4.092904E6,-8.479275E2,6.976613E2],"split_indices":[3,4,3,4,1,4,0,0,0,0,4,0,4,0,0,0,0,0,0,0,0,0,5,0,0],"split_type":[0,0,0,0,0,0,0,0,0,0,0,0,0,0,0,0,0,0,0,0,0,0,0,0,0],"sum_hessian":[1.2E2,4.2E1,7.8E1,3.6E1,6E0,4.3E1,3.5E1,2.4E1,1.2E1,2E0,4E0,2.7E1,1.6E1,2.9E1,6E0,3E0,1E0,4E0,2.3E1,9E0,7E0,2E0,2.1E1,7E0,1.4E1],"tree_param":{"num_deleted":"0","num_feature":"6","num_nodes":"25","size_leaf_vector":"1"}},{"base_weights":[-1.1877366E3,-1.1568189E6,6.2784175E5,-1.2885185E6,-4.1956803E5,1.3448644E5,1.156607E6,-1.3947561E4,-9.202735E5,-1.2365533E3,-4.9759638E5,-4.559448E3,2.0863564E5,1.2520283E4,7.1002373E3,-9.816459E3,-1.5327474E3,-5.887987E3,-2.1012783E3,6.433695E3,1.3856786E5,1.6559887E4,3.343838E5,-1.4373918E3,4.9435486E2,1.4520449E3,3.5557961E3],"categories":[],"categories_nodes":[],"categories_segments":[],"categories_sizes":[],"default_left":[0,0,0,0,0,0,0,0,0,0,0,0,0,0,0,0,0,0,0,0,0,0,0,0,0,0,0],"id":36,"left_children":[1,3,5,7,9,11,13,-1,15,-1,17,-1,19,-1,-1,-1,-1,-1,-1,-1,21,23,25,-1,-1,-1,-1],"loss_changes":[8.868435E13,3.6344986E12,2.0453115E13,1.248141E11,1.23186184E11,1.9338866E12,7.3034996E11,0E0,3.6733714E11,0E0,3.3583792E10,0E0,1.0683616E12,0E0,0E0,0E0,0E0,0E0,0E0,0E0,8.067602E11,1.2304424E11,4.9584538E8,0E0,0E0,0E0,0E0],"parents":[2147483647,0,0,1,1,2,2,3,3,4,4,5,5,6,6,8,8,10,10,12,12,20,20,21,21,22,22],"right_children":[2,4,6,8,10,12,14,-1,16,-1,18,-1,20,-1,-1,-1,-1,-1,-1,-1,22,24,26,-1,-1,-1,-1],"split_conditions":[3.5610198E6,3.2206248E6,5.1296465E6,2.6370692E6,5E0,1E0,1.9E1,-1.3947561E4,3E0,-1.2365533E3,1E1,-4.559448E3,1E1,1.2520283E4,7.1002373E3,-9.816459E3,-1.5327474E3,-5.887987E3,-2.1012783E3,6.433695E3,4.1983795E6,3.8731755E6,4.444626E6,-1.4373918E3,4.9435486E2,1.4520449E3,3.5557961E3],"split_indices":[3,4,3,5,1,0,0,0,0,0,0,0,0,0,0,0,0,0,0,0,4,4,3,0,0,0,0],"split_type":[0,0,0,0,0,0,0,0,0,0,0,0,0,0,0,0,0,0,0,0,0,0,0,0,0,0,0],"sum_hessian":[1.2E2,4.2E1,7.8E1,3.5E1,7E0,4.1E1,3.7E1,2.5E1,1E1,2E0,5E0,4E0,3.7E1,2.9E1,8E0,9E0,1E0,3E0,2E0,4E0,3.3E1,2.1E1,1.2E1,3E0,1.8E1,2E0,1E1],"tree_param":{"num_deleted":"0","num_feature":"6","num_nodes":"27","size_leaf_vector":"1"}},{"base_weights":[-1.2499701E3,-1.1460536E6,6.218868E5,-1.2642635E6,-3.575075E5,1.5684028E5,1.1730024E6,-1.3816774E4,-9.412164E3,-1.2283099E3,-4.268119E5,-1.3722089E4,4.2854066E5,1.2126207E4,5.5290034E3,-4.6826514E3,-1.304995E3,-4.5229717E3,7.821948E4,2.6289836E3,5.182004E3,5.0584463E3,1.6351522E4,-8.424175E2,6.8911163E2],"categories":[],"categories_nodes":[],"categories_segments":[],"categories_sizes":[],"default_left":[0,0,0,0,0,0,0,0,0,0,0,0,0,0,0,0,0,0,0,0,0,0,0,0,0],"id":37,"left_children":[1,3,5,7,9,11,13,-1,-1,-1,15,17,19,-1,-1,-1,-1,-1,21,-1,-1,-1,23,-1,-1],"loss_changes":[8.703039E13,3.5562161E12,2.0063277E13,1.0295758E11,6.142309E10,2.0449224E12,2.1397242E11,0E0,0E0,0E0,3.0716723E8,1.1644304E12,1.1624042E11,0E0,0E0,0E0,0E0,0E0,6.2667974E11,0E0,0E0,0E0,1.2212242E11,0E0,0E0],"parents":[2147483647,0,0,1,1,2,2,3,3,4,4,5,5,6,6,10,10,11,11,12,12,18,18,22,22],"right_children":[2,4,6,8,10,12,14,-1,-1,-1,16,18,20,-1,-1,-1,-1,-1,22,-1,-1,-1,24,-1,-1],"split_conditions":[3.5610198E6,3.3705652E6,5.1819855E6,2.3862732E6,5E0,4.1983795E6,2E1,-1.3816774E4,-9.412164E3,-1.2283099E3,3.807679E6,1E0,4.3955905E6,1.2126207E4,5.5290034E3,-4.6826514E3,-1.304995E3,-4.5229717E3,1E1,2.6289836E3,5.182004E3,5.0584463E3,4.092904E6,-8.424175E2,6.8911163E2],"split_indices":[3,4,3,4,1,4,0,0,0,0,4,0,4,0,0,0,0,0,0,0,0,0,5,0,0],"split_type":[0,0,0,0,0,0,0,0,0,0,0,0,0,0,0,0,0,0,0,0,0,0,0,0,0],"sum_hessian":[1.2E2,4.2E1,7.8E1,3.6E1,6E0,4.3E1,3.5E1,2.4E1,1.2E1,2E0,4E0,2.7E1,1.6E1,3.2E1,3E0,3E0,1E0,4E0,2.3E1,7E0,9E0,2E0,2.1E1,7E0,1.4E1],"tree_param":{"num_deleted":"0","num_feature":"6","num_nodes":"25","size_leaf_vector":"1"}},{"base_weights":[-1.2753812E3,-1.135301E6,6.1599525E5,-1.264249E6,-4.1312284E5,1.3208181E5,1.1346365E6,-1.3689067E4,-9.0194425E5,-1.2201216E3,-4.8982438E5,-4.486788E3,2.0502184E5,6.957412E3,1.2284839E4,-9.630187E3,-1.456E3,-5.7968823E3,-2.0673108E3,6.3412646E3,1.3588816E5,1.6181137E4,3.2801634E5,-1.4279493E3,4.8798145E2,1.4248383E3,3.4879646E3],"categories":[],"categories_nodes":[],"categories_segments":[],"categories_sizes":[],"default_left":[0,0,0,0,0,0,0,0,0,0,0,0,0,0,0,0,0,0,0,0,0,0,0,0,0,0,0],"id":38,"left_children":[1,3,5,7,9,11,13,-1,15,-1,17,-1,19,-1,-1,-1,-1,-1,-1,-1,21,23,25,-1,-1,-1,-1],"loss_changes":[8.539943E13,3.4820147E12,1.967736E13,1.3037155E11,1.1886461E11,1.8711384E12,7.1047735E11,0E0,3.679107E11,0E0,3.2799457E10,0E0,1.04112194E12,0E0,0E0,0E0,0E0,0E0,0E0,0E0,7.766614E11,1.21045254E11,4.22314E8,0E0,0E0,0E0,0E0],"parents":[2147483647,0,0,1,1,2,2,3,3,4,4,5,5,6,6,8,8,10,10,12,12,20,20,21,21,22,22],"right_children":[2,4,6,8,10,12,14,-1,16,-1,18,-1,20,-1,-1,-1,-1,-1,-1,-1,22,24,26,-1,-1,-1,-1],"split_conditions":[3.5610198E6,3.2206248E6,5.1296465E6,2.6370692E6,5E0,1E0,5.5546855E6,-1.3689067E4,3E0,-1.2201216E3,1E1,-4.486788E3,1E1,6.957412E3,1.2284839E4,-9.630187E3,-1.456E3,-5.7968823E3,-2.0673108E3,6.3412646E3,4.1983795E6,3.8731755E6,4.444626E6,-1.4279493E3,4.8798145E2,1.4248383E3,3.4879646E3],"split_indices":[3,4,3,5,1,0,3,0,0,0,0,0,0,0,0,0,0,0,0,0,4,4,3,0,0,0,0],"split_type":[0,0,0,0,0,0,0,0,0,0,0,0,0,0,0,0,0,0,0,0,0,0,0,0,0,0,0],"sum_hessian":[1.2E2,4.2E1,7.8E1,3.5E1,7E0,4.1E1,3.7E1,2.5E1,1E1,2E0,5E0,4E0,3.7E1,8E0,2.9E1,9E0,1E0,3E0,2E0,4E0,3.3E1,2.1E1,1.2E1,3E0,1.8E1,2E0,1E1],"tree_param":{"num_deleted":"0","num_feature":"6","num_nodes":"27","size_leaf_vector":"1"}},{"base_weights":[-1.3353419E3,-1.1247355E6,6.1015256E5,-1.2404609E6,-3.5236775E5,1.540135E5,1.1507071E6,-1.3562483E4,-9.223726E3,-1.2119883E3,-4.2059556E5,-1.3543857E4,4.2093072E5,1.2168606E4,7.0280503E3,-4.6133774E3,-1.2881337E3,-4.450894E3,7.692579E4,2.858043E3,5.3722236E3,4.9824463E3,1.5976591E4,-8.369206E2,6.80681E2],"categories":[],"categories_nodes":[],"categories_segments":[],"categories_sizes":[],"default_left":[0,0,0,0,0,0,0,0,0,0,0,0,0,0,0,0,0,0,0,0,0,0,0,0,0],"id":39,"left_children":[1,3,5,7,9,11,13,-1,-1,-1,15,17,19,-1,-1,-1,-1,-1,21,-1,-1,-1,23,-1,-1],"loss_changes":[8.380667E13,3.4063537E12,1.9301648E13,1.11761424E11,5.9429356E10,1.9735542E12,2.114768E11,0E0,0E0,0E0,1.277952E7,1.1274085E12,1.1359905E11,0E0,0E0,0E0,0E0,0E0,6.083369E11,0E0,0E0,0E0,1.1991835E11,0E0,0E0],"parents":[2147483647,0,0,1,1,2,2,3,3,4,4,5,5,6,6,10,10,11,11,12,12,18,18,22,22],"right_children":[2,4,6,8,10,12,14,-1,-1,-1,16,18,20,-1,-1,-1,-1,-1,22,-1,-1,-1,24,-1,-1],"split_conditions":[3.5610198E6,3.3705652E6,5.1819855E6,2.3862732E6,5E0,4.1983795E6,1.9E1,-1.3562483E4,-9.223726E3,-1.2119883E3,3.807679E6,1E0,4.5471455E6,1.2168606E4,7.0280503E3,-4.6133774E3,-1.2881337E3,-4.450894E3,1E1,2.858043E3,5.3722236E3,4.9824463E3,4.092904E6,-8.369206E2,6.80681E2],"split_indices":[3,4,3,4,1,4,0,0,0,0,4,0,4,0,0,0,0,0,0,0,0,0,5,0,0],"split_type":[0,0,0,0,0,0,0,0,0,0,0,0,0,0,0,0,0,0,0,0,0,0,0,0,0],"sum_hessian":[1.2E2,4.2E1,7.8E1,3.6E1,6E0,4.3E1,3.5E1,2.4E1,1.2E1,2E0,4E0,2.7E1,1.6E1,2.9E1,6E0,3E0,1E0,4E0,2.3E1,9E0,7E0,2E0,2.1E1,7E0,1.4E1],"tree_param":{"num_deleted":"0","num_feature":"6","num_nodes":"25","size_leaf_vector":"1"}},{"base_weights":[-1.3392697E3,-1.1141835E6,6.04403E5,-1.2404346E6,-4.067801E5,1.2974696E5,1.1131175E6,-1.3435377E4,-8.839696E5,-1.2039083E3,-4.8217803E5,-4.4152856E3,2.015004E5,6.8196426E3,1.2053595E4,-9.447484E3,-1.3809075E3,-5.707278E3,-2.0338567E3,6.2491147E3,1.333076E5,1.5809704E4,3.2189572E5,-1.4185505E3,4.81702E2,1.3962849E3,3.423417E3],"categories":[],"categories_nodes":[],"categories_segments":[],"categories_sizes":[],"default_left":[0,0,0,0,0,0,0,0,0,0,0,0,0,0,0,0,0,0,0,0,0,0,0,0,0,0,0],"id":40,"left_children":[1,3,5,7,9,11,13,-1,15,-1,17,-1,19,-1,-1,-1,-1,-1,-1,-1,21,23,25,-1,-1,-1,-1],"loss_changes":[8.223913E13,3.3357635E12,1.8931266E13,1.3544666E11,1.1469547E11,1.8105898E12,6.8926256E11,0E0,3.6820904E11,0E0,3.204409E10,0E0,1.01389094E12,0E0,0E0,0E0,0E0,0E0,0E0,0E0,7.483071E11,1.190796E11,6.456607E8,0E0,0E0,0E0,0E0],"parents":[2147483647,0,0,1,1,2,2,3,3,4,4,5,5,6,6,8,8,10,10,12,12,20,20,21,21,22,22],"right_children":[2,4,6,8,10,12,14,-1,16,-1,18,-1,20,-1,-1,-1,-1,-1,-1,-1,22,24,26,-1,-1,-1,-1],"split_conditions":[3.5610198E6,3.2206248E6,5.1296465E6,2.6370692E6,5E0,1E0,5.5546855E6,-1.3435377E4,3E0,-1.2039083E3,1E1,-4.4152856E3,1E1,6.8196426E3,1.2053595E4,-9.447484E3,-1.3809075E3,-5.707278E3,-2.0338567E3,6.2491147E3,4.1983795E6,3.8731755E6,4.444626E6,-1.4185505E3,4.81702E2,1.3962849E3,3.423417E3],"split_indices":[3,4,3,5,1,0,3,0,0,0,0,0,0,0,0,0,0,0,0,0,4,4,3,0,0,0,0],"split_type":[0,0,0,0,0,0,0,0,0,0,0,0,0,0,0,0,0,0,0,0,0,0,0,0,0,0,0],"sum_hessian":[1.2E2,4.2E1,7.8E1,3.5E1,7E0,4.1E1,3.7E1,2.5E1,1E1,2E0,5E0,4E0,3.7E1,8E0,2.9E1,9E0,1E0,3E0,2E0,4E0,3.3E1,2.1E1,1.2E1,3E0,1.8E1,2E0,1E1],"tree_param":{"num_deleted":"0","num_feature":"6","num_nodes":"27","size_leaf_vector":"1"}},{"base_weights":[-1.3970651E3,-1.1038139E6,5.9867025E5,-1.2287042E6,-4.0383044E5,1.5125039E5,1.128887E6,-1.3306189E4,-8.761143E5,-1.1958816E3,-4.786465E5,-4.379964E3,2.2112498E5,1.1939694E4,6.8869263E3,-9.362457E3,-1.3740024E3,-5.6644736E3,-2.0202982E3,1.00877664E5,4.631096E3,4.90757E3,5.201167E4,-5.2426373E2,1.3209467E3],"categories":[],"categories_nodes":[],"categories_segments":[],"categories_sizes":[],"default_left":[0,0,0,0,0,0,0,0,0,0,0,0,0,0,0,0,0,0,0,0,0,0,0,0,0],"id":41,"left_children":[1,3,5,7,9,11,13,-1,15,-1,17,-1,19,-1,-1,-1,-1,-1,-1,21,-1,-1,23,-1,-1],"loss_changes":[8.070526E13,3.2629252E12,1.8570386E13,1.2785497E11,1.1288655E11,1.9084804E12,2.0908186E11,0E0,3.5997876E11,0E0,3.128374E10,0E0,1.117203E12,0E0,0E0,0E0,0E0,0E0,0E0,5.0792638E11,0E0,0E0,2.2438176E11,0E0,0E0],"parents":[2147483647,0,0,1,1,2,2,3,3,4,4,5,5,6,6,8,8,10,10,12,12,19,19,22,22],"right_children":[2,4,6,8,10,12,14,-1,16,-1,18,-1,20,-1,-1,-1,-1,-1,-1,22,-1,-1,24,-1,-1],"split_conditions":[3.5610198E6,3.2206248E6,5.1819855E6,2.6370692E6,5E0,1E0,1.9E1,-1.3306189E4,3E0,-1.1958816E3,1E1,-4.379964E3,4.2638165E6,1.1939694E4,6.8869263E3,-9.362457E3,-1.3740024E3,-5.6644736E3,-2.0202982E3,1E1,4.631096E3,4.90757E3,4.0736968E6,-5.2426373E2,1.3209467E3],"split_indices":[3,4,3,5,1,0,0,0,0,0,0,0,4,0,0,0,0,0,0,0,0,0,4,0,0],"split_type":[0,0,0,0,0,0,0,0,0,0,0,0,0,0,0,0,0,0,0,0,0,0,0,0,0],"sum_hessian":[1.2E2,4.2E1,7.8E1,3.5E1,7E0,4.3E1,3.5E1,2.5E1,1E1,2E0,5E0,4E0,3.9E1,2.9E1,6E0,9E0,1E0,3E0,2E0,2.7E1,1.2E1,2E0,2.5E1,1.1E1,1.4E1],"tree_param":{"num_deleted":"0","num_feature":"6","num_nodes":"25","size_leaf_vector":"1"}},{"base_weights":[-1.450313E3,-1.0935414E6,5.929973E5,-1.2056461E6,-3.4476716E5,1.2736336E5,1.0920402E6,-1.3194675E4,-8.940167E3,-1.1879083E3,-4.113995E3,-4.344924E3,1.9794008E5,6.685978E3,1.1826716E4,6.1609688E3,1.3062467E5,1.5270647E4,3.1579111E3,-8.3376935E2,6.686465E2],"categories":[],"categories_nodes":[],"categories_segments":[],"categories_sizes":[],"default_left":[0,0,0,0,0,0,0,0,0,0,0,0,0,0,0,0,0,0,0,0,0],"id":42,"left_children":[1,3,5,7,9,11,13,-1,-1,-1,-1,-1,15,-1,-1,-1,17,19,-1,-1,-1],"loss_changes":[7.920057E13,3.193803E12,1.8218249E13,1.327665E11,5.653083E10,1.7514687E12,6.67599E11,0E0,0E0,0E0,0E0,0E0,9.8916185E11,0E0,0E0,0E0,7.2140725E11,1.175467E11,0E0,0E0,0E0],"parents":[2147483647,0,0,1,1,2,2,3,3,4,4,5,5,6,6,12,12,16,16,17,17],"right_children":[2,4,6,8,10,12,14,-1,-1,-1,-1,-1,16,-1,-1,-1,18,20,-1,-1,-1],"split_conditions":[3.5610198E6,3.3705652E6,5.1296465E6,2.3862732E6,5E0,1E0,5.5546855E6,-1.3194675E4,-8.940167E3,-1.1879083E3,-4.113995E3,-4.344924E3,1E1,6.685978E3,1.1826716E4,6.1609688E3,4.1983795E6,4.092904E6,3.1579111E3,-8.3376935E2,6.686465E2],"split_indices":[3,4,3,4,1,0,3,0,0,0,0,0,0,0,0,0,4,5,0,0,0],"split_type":[0,0,0,0,0,0,0,0,0,0,0,0,0,0,0,0,0,0,0,0,0],"sum_hessian":[1.2E2,4.2E1,7.8E1,3.6E1,6E0,4.1E1,3.7E1,2.4E1,1.2E1,2E0,4E0,4E0,3.7E1,8E0,2.9E1,4E0,3.3E1,2.1E1,1.2E1,7E0,1.4E1],"tree_param":{"num_deleted":"0","num_feature":"6","num_nodes":"21","size_leaf_vector":"1"}},{"base_weights":[-1.4697655E3,-1.0832439E6,5.873626E5,-1.2055568E6,-3.9743066E5,1.4846284E5,1.10748E6,-1.3059555E4,-8.5865456E5,-1.1799883E3,-4.7090812E5,-4.310164E3,2.1718617E5,1.1715098E4,6.7485557E3,-9.184969E3,-1.3011587E3,-5.5790693E3,-1.9794032E3,9.905543E4,4.54915E3,4.83378E3,5.090069E4,-5.2058E2,1.2987427E3],"categories":[],"categories_nodes":[],"categories_segments":[],"categories_sizes":[],"default_left":[0,0,0,0,0,0,0,0,0,0,0,0,0,0,0,0,0,0,0,0,0,0,0,0,0],"id":43,"left_children":[1,3,5,7,9,11,13,-1,15,-1,17,-1,19,-1,-1,-1,-1,-1,-1,21,-1,-1,23,-1,-1],"loss_changes":[7.771128E13,3.127877E12,1.7869656E13,1.32460315E11,1.08688966E11,1.8458555E12,2.066282E11,0E0,3.6006055E11,0E0,3.2054968E10,0E0,1.0782613E12,0E0,0E0,0E0,0E0,0E0,0E0,4.935904E11,0E0,0E0,2.1816741E11,0E0,0E0],"parents":[2147483647,0,0,1,1,2,2,3,3,4,4,5,5,6,6,8,8,10,10,12,12,19,19,22,22],"right_children":[2,4,6,8,10,12,14,-1,16,-1,18,-1,20,-1,-1,-1,-1,-1,-1,22,-1,-1,24,-1,-1],"split_conditions":[3.5610198E6,3.2206248E6,5.1819855E6,2.6370692E6,5E0,1E0,1.9E1,-1.3059555E4,3E0,-1.1799883E3,1E1,-4.310164E3,4.2638165E6,1.1715098E4,6.7485557E3,-9.184969E3,-1.3011587E3,-5.5790693E3,-1.9794032E3,1E1,4.54915E3,4.83378E3,4.0736968E6,-5.2058E2,1.2987427E3],"split_indices":[3,4,3,5,1,0,0,0,0,0,0,0,4,0,0,0,0,0,0,0,0,0,4,0,0],"split_type":[0,0,0,0,0,0,0,0,0,0,0,0,0,0,0,0,0,0,0,0,0,0,0,0,0],"sum_hessian":[1.2E2,4.2E1,7.8E1,3.5E1,7E0,4.3E1,3.5E1,2.5E1,1E1,2E0,5E0,4E0,3.9E1,2.9E1,6E0,9E0,1E0,3E0,2E0,2.7E1,1.2E1,2E0,2.5E1,1.1E1,1.4E1],"tree_param":{"num_deleted":"0","num_feature":"6","num_nodes":"25","size_leaf_vector":"1"}},{"base_weights":[-1.5208998E3,-1.0731622E6,5.817968E5,-1.1829438E6,-3.3958016E5,1.2500481E5,1.0713618E6,-1.2951987E4,-8.7607295E3,-1.1721216E3,-4.050849E5,-4.2756816E3,1.9442219E5,6.554893E3,1.1604113E4,-4.4480835E3,-1.230955E3,6.0741484E3,1.27969664E5,1.4780272E4,3.0967712E5,-8.287419E2,6.5877295E2,9.1801996E2,3.201832E3],"categories":[],"categories_nodes":[],"categories_segments":[],"categories_sizes":[],"default_left":[0,0,0,0,0,0,0,0,0,0,0,0,0,0,0,0,0,0,0,0,0,0,0,0,0],"id":44,"left_children":[1,3,5,7,9,11,13,-1,-1,-1,15,-1,17,-1,-1,-1,-1,-1,19,21,23,-1,-1,-1,-1],"loss_changes":[7.626236E13,3.0612463E12,1.7532797E13,1.3987584E11,5.448224E10,1.6941717E12,6.4662746E11,0E0,0E0,0E0,1.2540969E9,0E0,9.651568E11,0E0,0E0,0E0,0E0,0E0,6.94713E11,1.1523628E11,3.637248E8,0E0,0E0,0E0,0E0],"parents":[2147483647,0,0,1,1,2,2,3,3,4,4,5,5,6,6,10,10,12,12,18,18,19,19,20,20],"right_children":[2,4,6,8,10,12,14,-1,-1,-1,16,-1,18,-1,-1,-1,-1,-1,20,22,24,-1,-1,-1,-1],"split_conditions":[3.5610198E6,3.3705652E6,5.1296465E6,2.3862732E6,5E0,1E0,5.5546855E6,-1.2951987E4,-8.7607295E3,-1.1721216E3,3.807679E6,-4.2756816E3,1E1,6.554893E3,1.1604113E4,-4.4480835E3,-1.230955E3,6.0741484E3,4.1983795E6,4.092904E6,1.6E1,-8.287419E2,6.5877295E2,9.1801996E2,3.201832E3],"split_indices":[3,4,3,4,1,0,3,0,0,0,4,0,0,0,0,0,0,0,4,5,0,0,0,0,0],"split_type":[0,0,0,0,0,0,0,0,0,0,0,0,0,0,0,0,0,0,0,0,0,0,0,0,0],"sum_hessian":[1.2E2,4.2E1,7.8E1,3.6E1,6E0,4.1E1,3.7E1,2.4E1,1.2E1,2E0,4E0,4E0,3.7E1,8E0,2.9E1,3E0,1E0,4E0,3.3E1,2.1E1,1.2E1,7E0,1.4E1,1E0,1.1E1],"tree_param":{"num_deleted":"0","num_feature":"6","num_nodes":"25","size_leaf_vector":"1"}},{"base_weights":[-1.5441581E3,-1.0630949E6,5.762815E5,-1.1828436E6,-3.913387E5,1.2389161E5,1.0611261E6,-1.2817504E4,-8.415329E5,-1.1643083E3,-4.635695E5,-4.241476E3,1.9274173E5,1.1494729E4,6.487337E3,-9.010883E3,-1.2298925E3,-5.493085E3,-1.9472767E3,6.0255566E3,1.2680609E5,1.4624762E4,3.0689712E5,-1.4025575E3,4.646146E2,1.334725E3,3.26295E3],"categories":[],"categories_nodes":[],"categories_segments":[],"categories_sizes":[],"default_left":[0,0,0,0,0,0,0,0,0,0,0,0,0,0,0,0,0,0,0,0,0,0,0,0,0,0,0],"id":45,"left_children":[1,3,5,7,9,11,13,-1,15,-1,17,-1,19,-1,-1,-1,-1,-1,-1,-1,21,23,25,-1,-1,-1,-1],"loss_changes":[7.483299E13,2.996113E12,1.7196302E13,1.3665462E11,1.0488067E11,1.6665186E12,6.387757E11,0E0,3.5990012E11,0E0,3.1335907E10,0E0,9.504032E11,0E0,0E0,0E0,0E0,0E0,0E0,0E0,6.824087E11,1.1499593E11,1.8153472E8,0E0,0E0,0E0,0E0],"parents":[2147483647,0,0,1,1,2,2,3,3,4,4,5,5,6,6,8,8,10,10,12,12,20,20,21,21,22,22],"right_children":[2,4,6,8,10,12,14,-1,16,-1,18,-1,20,-1,-1,-1,-1,-1,-1,-1,22,24,26,-1,-1,-1,-1],"split_conditions":[3.5610198E6,3.2206248E6,5.1296465E6,2.6370692E6,5E0,1E0,1.9E1,-1.2817504E4,3E0,-1.1643083E3,1E1,-4.241476E3,1E1,1.1494729E4,6.487337E3,-9.010883E3,-1.2298925E3,-5.493085E3,-1.9472767E3,6.0255566E3,4.1983795E6,3.8731755E6,4.444626E6,-1.4025575E3,4.646146E2,1.334725E3,3.26295E3],"split_indices":[3,4,3,5,1,0,0,0,0,0,0,0,0,0,0,0,0,0,0,0,4,4,3,0,0,0,0],"split_type":[0,0,0,0,0,0,0,0,0,0,0,0,0,0,0,0,0,0,0,0,0,0,0,0,0,0,0],"sum_hessian":[1.2E2,4.2E1,7.8E1,3.5E1,7E0,4.1E1,3.7E1,2.5E1,1E1,2E0,5E0,4E0,3.7E1,2.9E1,8E0,9E0,1E0,3E0,2E0,4E0,3.3E1,2.1E1,1.2E1,3E0,1.8E1,2E0,1E1],"tree_param":{"num_deleted":"0","num_feature":"6","num_nodes":"27","size_leaf_vector":"1"}},{"base_weights":[-1.5967241E3,-1.0532002E6,5.708153E5,-1.160667E6,-3.3470472E5,1.4439695E5,1.0761374E6,-1.2713802E4,-8.584748E3,-1.1565466E3,-3.991938E5,-4.207544E3,2.1143095E5,6.5477656E3,1.1385836E4,-4.3823906E3,-1.2150637E3,9.642626E4,4.428695E3,4.72089E3,4.9371855E4,-5.164794E2,1.2689623E3],"categories":[],"categories_nodes":[],"categories_segments":[],"categories_sizes":[],"default_left":[0,0,0,0,0,0,0,0,0,0,0,0,0,0,0,0,0,0,0,0,0,0,0],"id":46,"left_children":[1,3,5,7,9,11,13,-1,-1,-1,15,-1,17,-1,-1,-1,-1,19,-1,-1,21,-1,-1],"loss_changes":[7.34372E13,2.9317388E12,1.6867417E13,1.4644412E11,5.2715717E10,1.7558722E12,2.0172925E11,0E0,0E0,0E0,9.630515E8,0E0,1.0219563E12,0E0,0E0,0E0,0E0,4.7163657E11,0E0,0E0,2.1017284E11,0E0,0E0],"parents":[2147483647,0,0,1,1,2,2,3,3,4,4,5,5,6,6,10,10,12,12,17,17,20,20],"right_children":[2,4,6,8,10,12,14,-1,-1,-1,16,-1,18,-1,-1,-1,-1,20,-1,-1,22,-1,-1],"split_conditions":[3.5610198E6,3.3705652E6,5.1819855E6,2.3862732E6,5E0,1E0,5.5546855E6,-1.2713802E4,-8.584748E3,-1.1565466E3,3.807679E6,-4.207544E3,4.2638165E6,6.5477656E3,1.1385836E4,-4.3823906E3,-1.2150637E3,1E1,4.428695E3,4.72089E3,4.0736968E6,-5.164794E2,1.2689623E3],"split_indices":[3,4,3,4,1,0,3,0,0,0,4,0,4,0,0,0,0,0,0,0,4,0,0],"split_type":[0,0,0,0,0,0,0,0,0,0,0,0,0,0,0,0,0,0,0,0,0,0,0],"sum_hessian":[1.2E2,4.2E1,7.8E1,3.6E1,6E0,4.3E1,3.5E1,2.4E1,1.2E1,2E0,4E0,4E0,3.9E1,6E0,2.9E1,3E0,1E0,2.7E1,1.2E1,2E0,2.5E1,1.1E1,1.4E1],"tree_param":{"num_deleted":"0","num_feature":"6","num_nodes":"23","size_leaf_vector":"1"}},{"base_weights":[-1.6173688E3,-1.0433207E6,5.654062E5,-1.1605568E6,-3.853434E5,1.2161614E5,1.0410319E6,-1.2579951E4,-8.247427E5,-1.1488367E3,-4.5634938E5,-4.173884E3,1.8933736E5,1.1278389E4,6.360049E3,-8.840134E3,-1.1601737E3,-5.408513E3,-1.9156367E3,5.940755E3,1.24248305E5,1.4117397E4,3.0106611E3,-8.2539716E2,6.4726697E2],"categories":[],"categories_nodes":[],"categories_segments":[],"categories_sizes":[],"default_left":[0,0,0,0,0,0,0,0,0,0,0,0,0,0,0,0,0,0,0,0,0,0,0,0,0],"id":47,"left_children":[1,3,5,7,9,11,13,-1,15,-1,17,-1,19,-1,-1,-1,-1,-1,-1,-1,21,23,-1,-1,-1],"loss_changes":[7.206101E13,2.869747E12,1.6548553E13,1.4044208E11,1.0120698E11,1.6121132E12,6.187437E11,0E0,3.5951267E11,0E0,3.0641881E10,0E0,9.272598E11,0E0,0E0,0E0,0E0,0E0,0E0,0E0,6.578353E11,1.1296101E11,0E0,0E0,0E0],"parents":[2147483647,0,0,1,1,2,2,3,3,4,4,5,5,6,6,8,8,10,10,12,12,20,20,21,21],"right_children":[2,4,6,8,10,12,14,-1,16,-1,18,-1,20,-1,-1,-1,-1,-1,-1,-1,22,24,-1,-1,-1],"split_conditions":[3.5610198E6,3.2206248E6,5.1296465E6,2.6370692E6,5E0,1E0,1.9E1,-1.2579951E4,3E0,-1.1488367E3,1E1,-4.173884E3,1E1,1.1278389E4,6.360049E3,-8.840134E3,-1.1601737E3,-5.408513E3,-1.9156367E3,5.940755E3,4.1983795E6,4.092904E6,3.0106611E3,-8.2539716E2,6.4726697E2],"split_indices":[3,4,3,5,1,0,0,0,0,0,0,0,0,0,0,0,0,0,0,0,4,5,0,0,0],"split_type":[0,0,0,0,0,0,0,0,0,0,0,0,0,0,0,0,0,0,0,0,0,0,0,0,0],"sum_hessian":[1.2E2,4.2E1,7.8E1,3.5E1,7E0,4.1E1,3.7E1,2.5E1,1E1,2E0,5E0,4E0,3.7E1,2.9E1,8E0,9E0,1E0,3E0,2E0,4E0,3.3E1,2.1E1,1.2E1,7E0,1.4E1],"tree_param":{"num_deleted":"0","num_feature":"6","num_nodes":"25","size_leaf_vector":"1"}},{"base_weights":[-1.674034E3,-1.0336096E6,5.600336E5,-1.1388081E6,-3.2990166E5,1.2050954E5,1.0310857E6,-1.2480038E4,-8.412158E3,-1.1411783E3,-3.933916E5,-4.1404917E3,1.8767492E5,6.295847E3,1.1171663E4,-4.31769E3,-1.19941E3,5.8932266E3,1.2308921E5,1.3968171E4,2.982872E5,-1.3893375E3,4.5422882E2,8.8536E2,3.0838845E3],"categories":[],"categories_nodes":[],"categories_segments":[],"categories_sizes":[],"default_left":[0,0,0,0,0,0,0,0,0,0,0,0,0,0,0,0,0,0,0,0,0,0,0,0,0],"id":48,"left_children":[1,3,5,7,9,11,13,-1,-1,-1,15,-1,17,-1,-1,-1,-1,-1,19,21,23,-1,-1,-1,-1],"loss_changes":[7.071604E13,2.8075539E12,1.6231803E13,1.525049E11,5.1007717E10,1.5856679E12,6.099902E11,0E0,0E0,0E0,6.848512E8,0E0,9.1320746E11,0E0,0E0,0E0,0E0,0E0,6.4583814E11,1.1211946E11,2.4038605E8,0E0,0E0,0E0,0E0],"parents":[2147483647,0,0,1,1,2,2,3,3,4,4,5,5,6,6,10,10,12,12,18,18,19,19,20,20],"right_children":[2,4,6,8,10,12,14,-1,-1,-1,16,-1,18,-1,-1,-1,-1,-1,20,22,24,-1,-1,-1,-1],"split_conditions":[3.5610198E6,3.3705652E6,5.1296465E6,2.3862732E6,5E0,1E0,5.5546855E6,-1.2480038E4,-8.412158E3,-1.1411783E3,3.807679E6,-4.1404917E3,1E1,6.295847E3,1.1171663E4,-4.31769E3,-1.19941E3,5.8932266E3,4.1983795E6,3.8731755E6,1.6E1,-1.3893375E3,4.5422882E2,8.8536E2,3.0838845E3],"split_indices":[3,4,3,4,1,0,3,0,0,0,4,0,0,0,0,0,0,0,4,4,0,0,0,0,0],"split_type":[0,0,0,0,0,0,0,0,0,0,0,0,0,0,0,0,0,0,0,0,0,0,0,0,0],"sum_hessian":[1.2E2,4.2E1,7.8E1,3.6E1,6E0,4.1E1,3.7E1,2.4E1,1.2E1,2E0,4E0,4E0,3.7E1,8E0,2.9E1,3E0,1E0,4E0,3.3E1,2.1E1,1.2E1,3E0,1.8E1,1E0,1.1E1],"tree_param":{"num_deleted":"0","num_feature":"6","num_nodes":"25","size_leaf_vector":"1"}},{"base_weights":[-1.7010382E3,-1.02391425E6,5.54715E5,-1.138688E6,-3.7944316E5,1.4040933E5,1.0456799E6,-1.1758429E4,-5.474876E3,-1.13357E3,-4.4924572E5,-4.107368E3,2.0579236E5,1.1066247E4,6.351045E3,-5.32533E3,-1.8844741E3,9.3759625E4,4.312635E3,4.6105234E3,4.777356E4,-5.123239E2,1.2379341E3],"categories":[],"categories_nodes":[],"categories_segments":[],"categories_sizes":[],"default_left":[0,0,0,0,0,0,0,0,0,0,0,0,0,0,0,0,0,0,0,0,0,0,0],"id":49,"left_children":[1,3,5,7,9,11,13,-1,-1,-1,15,-1,17,-1,-1,-1,-1,19,-1,-1,21,-1,-1],"loss_changes":[6.9389857E13,2.7485735E12,1.5922526E13,1.4701874E11,9.766293E10,1.6700932E12,1.9799212E11,0E0,0E0,0E0,2.9972627E10,0E0,9.6997055E11,0E0,0E0,0E0,0E0,4.509036E11,0E0,0E0,2.0202914E11,0E0,0E0],"parents":[2147483647,0,0,1,1,2,2,3,3,4,4,5,5,6,6,10,10,12,12,17,17,20,20],"right_children":[2,4,6,8,10,12,14,-1,-1,-1,16,-1,18,-1,-1,-1,-1,20,-1,-1,22,-1,-1],"split_conditions":[3.5610198E6,3.2206248E6,5.1819855E6,3.2702052E6,5E0,1E0,1.9E1,-1.1758429E4,-5.474876E3,-1.13357E3,1E1,-4.107368E3,4.2638165E6,1.1066247E4,6.351045E3,-5.32533E3,-1.8844741E3,1E1,4.312635E3,4.6105234E3,4.0736968E6,-5.123239E2,1.2379341E3],"split_indices":[3,4,3,3,1,0,0,0,0,0,0,0,4,0,0,0,0,0,0,0,4,0,0],"split_type":[0,0,0,0,0,0,0,0,0,0,0,0,0,0,0,0,0,0,0,0,0,0,0],"sum_hessian":[1.2E2,4.2E1,7.8E1,3.5E1,7E0,4.3E1,3.5E1,3.2E1,3E0,2E0,5E0,4E0,3.9E1,2.9E1,6E0,3E0,2E0,2.7E1,1.2E1,2E0,2.5E1,1.1E1,1.4E1],"tree_param":{"num_deleted":"0","num_feature":"6","num_nodes":"23","size_leaf_vector":"1"}},{"base_weights":[-1.7055878E3,-1.0142698E6,5.4945856E5,-1.1172274E6,-3.2516997E5,1.1828472E5,1.0115597E6,-1.2247349E4,-8.245415E3,-1.1260133E3,-3.8767716E5,-4.07451E3,1.8434772E5,6.172242E3,1.0961416E4,-4.253969E3,-1.18399E3,5.810391E3,1.2058876E5,2.968375E2,2.7293872E5,-1.3750762E3,3.2703955E2,2.8839094E3,2.8303876E2],"categories":[],"categories_nodes":[],"categories_segments":[],"categories_sizes":[],"default_left":[0,0,0,0,0,0,0,0,0,0,0,0,0,0,0,0,0,0,0,0,0,0,0,0,0],"id":50,"left_children":[1,3,5,7,9,11,13,-1,-1,-1,15,-1,17,-1,-1,-1,-1,-1,19,21,23,-1,-1,-1,-1],"loss_changes":[6.8086082E13,2.687475E12,1.5620775E13,1.5439652E11,4.9356538E10,1.5338431E12,5.908768E11,0E0,0E0,0E0,4.1897165E8,0E0,8.91053E11,0E0,0E0,0E0,0E0,0E0,6.230189E11,9.381396E10,4.853963E10,0E0,0E0,0E0,0E0],"parents":[2147483647,0,0,1,1,2,2,3,3,4,4,5,5,6,6,10,10,12,12,18,18,19,19,20,20],"right_children":[2,4,6,8,10,12,14,-1,-1,-1,16,-1,18,-1,-1,-1,-1,-1,20,22,24,-1,-1,-1,-1],"split_conditions":[3.5610198E6,3.3705652E6,5.1296465E6,2.3862732E6,5E0,1E0,5.5546855E6,-1.2247349E4,-8.245415E3,-1.1260133E3,3.807679E6,-4.07451E3,1E1,6.172242E3,1.0961416E4,-4.253969E3,-1.18399E3,5.810391E3,4.1747495E6,3.8731755E6,2.3E1,-1.3750762E3,3.2703955E2,2.8839094E3,2.8303876E2],"split_indices":[3,4,3,4,1,0,3,0,0,0,4,0,0,0,0,0,0,0,4,4,0,0,0,0,0],"split_type":[0,0,0,0,0,0,0,0,0,0,0,0,0,0,0,0,0,0,0,0,0,0,0,0,0],"sum_hessian":[1.2E2,4.2E1,7.8E1,3.6E1,6E0,4.1E1,3.7E1,2.4E1,1.2E1,2E0,4E0,4E0,3.7E1,8E0,2.9E1,3E0,1E0,4E0,3.3E1,1.9E1,1.4E1,3E0,1.6E1,1.3E1,1E0],"tree_param":{"num_deleted":"0","num_feature":"6","num_nodes":"25","size_leaf_vector":"1"}},{"base_weights":[-1.7387076E3,-1.0047564E6,5.442296E5,-1.1170954E6,-3.7363625E5,1.17193625E5,1.001895E6,-1.2123684E4,-7.903506E5,-1.1185066E3,-4.4225634E5,-4.041914E3,1.8271288E5,1.08581045E4,6.108549E3,-8.499468E3,-9.719437E2,-5.243507E3,-1.8537842E3,5.7639067E3,1.1944517E5,2.414875E2,2.704204E5,-1.3647637E3,3.239619E2,2.8571294E3,2.8162375E2],"categories":[],"categories_nodes":[],"categories_segments":[],"categories_sizes":[],"default_left":[0,0,0,0,0,0,0,0,0,0,0,0,0,0,0,0,0,0,0,0,0,0,0,0,0,0,0],"id":51,"left_children":[1,3,5,7,9,11,13,-1,15,-1,17,-1,19,-1,-1,-1,-1,-1,-1,-1,21,23,25,-1,-1,-1,-1],"loss_changes":[6.6808346E13,2.6312882E12,1.532231E13,1.6247895E11,9.424326E10,1.5086027E12,5.8367515E11,0E0,3.7179412E11,0E0,2.932605E10,0E0,8.776226E11,0E0,0E0,0E0,0E0,0E0,0E0,0E0,6.11826E11,9.234376E10,4.752474E10,0E0,0E0,0E0,0E0],"parents":[2147483647,0,0,1,1,2,2,3,3,4,4,5,5,6,6,8,8,10,10,12,12,20,20,21,21,22,22],"right_children":[2,4,6,8,10,12,14,-1,16,-1,18,-1,20,-1,-1,-1,-1,-1,-1,-1,22,24,26,-1,-1,-1,-1],"split_conditions":[3.5610198E6,3.2206248E6,5.1296465E6,2.6370692E6,5E0,1E0,1.9E1,-1.2123684E4,3E0,-1.1185066E3,1E1,-4.041914E3,1E1,1.08581045E4,6.108549E3,-8.499468E3,-9.719437E2,-5.243507E3,-1.8537842E3,5.7639067E3,4.1747495E6,3.8731755E6,2.3E1,-1.3647637E3,3.239619E2,2.8571294E3,2.8162375E2],"split_indices":[3,4,3,5,1,0,0,0,0,0,0,0,0,0,0,0,0,0,0,0,4,4,0,0,0,0,0],"split_type":[0,0,0,0,0,0,0,0,0,0,0,0,0,0,0,0,0,0,0,0,0,0,0,0,0,0,0],"sum_hessian":[1.2E2,4.2E1,7.8E1,3.5E1,7E0,4.1E1,3.7E1,2.5E1,1E1,2E0,5E0,4E0,3.7E1,2.9E1,8E0,9E0,1E0,3E0,2E0,4E0,3.3E1,1.9E1,1.4E1,3E0,1.6E1,1.3E1,1E0],"tree_param":{"num_deleted":"0","num_feature":"6","num_nodes":"27","size_leaf_vector":"1"}},{"base_weights":[-1.7958502E3,-9.9540206E5,5.390505E5,-1.1065242E6,-3.7092688E5,1.3649962E5,1.0160835E6,-1.2007109E4,-7.833081E5,-1.1110499E3,-4.3901666E5,-4.0095781E3,2.0026931E5,6.16182E3,1.0755243E4,-8.422973E3,-9.6708374E2,-5.2041807E3,-1.8414258E3,9.106199E4,4.200798E3,4.5026235E3,4.6113414E4,-5.0511893E2,1.2033943E3],"categories":[],"categories_nodes":[],"categories_segments":[],"categories_sizes":[],"default_left":[0,0,0,0,0,0,0,0,0,0,0,0,0,0,0,0,0,0,0,0,0,0,0,0,0],"id":52,"left_children":[1,3,5,7,9,11,13,-1,15,-1,17,-1,19,-1,-1,-1,-1,-1,-1,21,-1,-1,23,-1,-1],"loss_changes":[6.5560558E13,2.5734656E12,1.5031679E13,1.5541155E11,9.275271E10,1.5883334E12,1.9302187E11,0E0,3.64064E11,0E0,2.8651553E10,0E0,9.2194315E11,0E0,0E0,0E0,0E0,0E0,0E0,4.3131208E11,0E0,0E0,1.9255348E11,0E0,0E0],"parents":[2147483647,0,0,1,1,2,2,3,3,4,4,5,5,6,6,8,8,10,10,12,12,19,19,22,22],"right_children":[2,4,6,8,10,12,14,-1,16,-1,18,-1,20,-1,-1,-1,-1,-1,-1,22,-1,-1,24,-1,-1],"split_conditions":[3.5610198E6,3.2206248E6,5.1819855E6,2.6370692E6,5E0,1E0,5.5546855E6,-1.2007109E4,3E0,-1.1110499E3,1E1,-4.0095781E3,4.2638165E6,6.16182E3,1.0755243E4,-8.422973E3,-9.6708374E2,-5.2041807E3,-1.8414258E3,1E1,4.200798E3,4.5026235E3,4.0736968E6,-5.0511893E2,1.2033943E3],"split_indices":[3,4,3,5,1,0,3,0,0,0,0,0,4,0,0,0,0,0,0,0,0,0,4,0,0],"split_type":[0,0,0,0,0,0,0,0,0,0,0,0,0,0,0,0,0,0,0,0,0,0,0,0,0],"sum_hessian":[1.2E2,4.2E1,7.8E1,3.5E1,7E0,4.3E1,3.5E1,2.5E1,1E1,2E0,5E0,4E0,3.9E1,6E0,2.9E1,9E0,1E0,3E0,2E0,2.7E1,1.2E1,2E0,2.5E1,1.1E1,1.4E1],"tree_param":{"num_deleted":"0","num_feature":"6","num_nodes":"25","size_leaf_vector":"1"}},{"base_weights":[-1.8377778E3,-9.861354E5,5.3394244E5,-1.0858534E6,-3.181781E5,1.1501097E5,9.829208E5,-1.19156455E4,-7.9903525E3,-1.1036433E3,-3.7923075E5,-3.9775017E3,1.7945294E5,1.0653772E4,5.9885254E3,-4.1605874E3,-1.1595938E3,5.682981E3,1.16991805E5,-1.665E1,2.6520362E5,-1.3507406E3,3.1762543E2,2.802296E3,2.7419873E2],"categories":[],"categories_nodes":[],"categories_segments":[],"categories_sizes":[],"default_left":[0,0,0,0,0,0,0,0,0,0,0,0,0,0,0,0,0,0,0,0,0,0,0,0,0],"id":53,"left_children":[1,3,5,7,9,11,13,-1,-1,-1,15,-1,17,-1,-1,-1,-1,-1,19,21,23,-1,-1,-1,-1],"loss_changes":[6.433797E13,2.5186208E12,1.4746158E13,1.697351E11,4.6959493E10,1.4591978E12,5.6541315E11,0E0,0E0,0E0,2.3291494E8,0E0,8.564467E11,0E0,0E0,0E0,0E0,0E0,5.896336E11,9.013061E10,4.591013E10,0E0,0E0,0E0,0E0],"parents":[2147483647,0,0,1,1,2,2,3,3,4,4,5,5,6,6,10,10,12,12,18,18,19,19,20,20],"right_children":[2,4,6,8,10,12,14,-1,-1,-1,16,-1,18,-1,-1,-1,-1,-1,20,22,24,-1,-1,-1,-1],"split_conditions":[3.5610198E6,3.3705652E6,5.1296465E6,2.3862732E6,5E0,1E0,1.9E1,-1.19156455E4,-7.9903525E3,-1.1036433E3,3.807679E6,-3.9775017E3,1E1,1.0653772E4,5.9885254E3,-4.1605874E3,-1.1595938E3,5.682981E3,4.1747495E6,3.8731755E6,2.3E1,-1.3507406E3,3.1762543E2,2.802296E3,2.7419873E2],"split_indices":[3,4,3,4,1,0,0,0,0,0,4,0,0,0,0,0,0,0,4,4,0,0,0,0,0],"split_type":[0,0,0,0,0,0,0,0,0,0,0,0,0,0,0,0,0,0,0,0,0,0,0,0,0],"sum_hessian":[1.2E2,4.2E1,7.8E1,3.6E1,6E0,4.1E1,3.7E1,2.4E1,1.2E1,2E0,4E0,4E0,3.7E1,2.9E1,8E0,3E0,1E0,4E0,3.3E1,1.9E1,1.4E1,3E0,1.6E1,1.3E1,1E0],"tree_param":{"num_deleted":"0","num_feature":"6","num_nodes":"25","size_leaf_vector":"1"}},{"base_weights":[-1.8685609E3,-9.768863E5,5.2886094E5,-1.0856681E6,-3.652573E5,1.3397212E5,9.968123E5,-1.1784632E4,-7.676373E5,-1.096285E3,-4.321955E5,-3.945682E3,1.9669036E5,6.037678E3,1.0552956E4,-8.263477E3,-9.0267E2,-5.1243706E3,-1.8114158E3,8.9384016E4,4.126817E3,4.4347197E3,4.5089867E4,-4.9923123E2,1.1809426E3],"categories":[],"categories_nodes":[],"categories_segments":[],"categories_sizes":[],"default_left":[0,0,0,0,0,0,0,0,0,0,0,0,0,0,0,0,0,0,0,0,0,0,0,0,0],"id":54,"left_children":[1,3,5,7,9,11,13,-1,15,-1,17,-1,19,-1,-1,-1,-1,-1,-1,21,-1,-1,23,-1,-1],"loss_changes":[6.313059E13,2.464422E12,1.446477E13,1.5778552E11,8.950979E10,1.5361691E12,1.9036268E11,0E0,3.628634E11,0E0,2.8046E10,0E0,8.902025E11,0E0,0E0,0E0,0E0,0E0,0E0,4.1915666E11,0E0,0E0,1.8624116E11,0E0,0E0],"parents":[2147483647,0,0,1,1,2,2,3,3,4,4,5,5,6,6,8,8,10,10,12,12,19,19,22,22],"right_children":[2,4,6,8,10,12,14,-1,16,-1,18,-1,20,-1,-1,-1,-1,-1,-1,22,-1,-1,24,-1,-1],"split_conditions":[3.5610198E6,3.2206248E6,5.1819855E6,2.6370692E6,5E0,1E0,5.5546855E6,-1.1784632E4,3E0,-1.096285E3,1E1,-3.945682E3,4.2638165E6,6.037678E3,1.0552956E4,-8.263477E3,-9.0267E2,-5.1243706E3,-1.8114158E3,1E1,4.126817E3,4.4347197E3,4.0736968E6,-4.9923123E2,1.1809426E3],"split_indices":[3,4,3,5,1,0,3,0,0,0,0,0,4,0,0,0,0,0,0,0,0,0,4,0,0],"split_type":[0,0,0,0,0,0,0,0,0,0,0,0,0,0,0,0,0,0,0,0,0,0,0,0,0],"sum_hessian":[1.2E2,4.2E1,7.8E1,3.5E1,7E0,4.3E1,3.5E1,2.5E1,1E1,2E0,5E0,4E0,3.9E1,6E0,2.9E1,9E0,1E0,3E0,2E0,2.7E1,1.2E1,2E0,2.5E1,1.1E1,1.4E1],"tree_param":{"num_deleted":"0","num_feature":"6","num_nodes":"25","size_leaf_vector":"1"}},{"base_weights":[-1.908503E3,-9.6779144E5,5.238494E5,-1.0653972E6,-3.136192E5,7.027999E4,9.217491E5,-1.16967E4,-7.829189E3,-1.0889766E3,-3.7372825E3,-3.914116E3,1.3610875E5,1.0164083E4,4.61731E3,3.1014967E4,3.2619612E5,6.3940777E4,-7.2931625E4,4.9336284E3,2.434265E3,2.1941634E2,1.4428212E3,1.9706438E2,-1.721385E3],"categories":[],"categories_nodes":[],"categories_segments":[],"categories_sizes":[],"default_left":[0,0,0,0,0,0,0,0,0,0,0,0,0,0,0,0,0,0,0,0,0,0,0,0,0],"id":55,"left_children":[1,3,5,7,9,11,13,-1,-1,-1,-1,-1,15,-1,-1,17,19,21,23,-1,-1,-1,-1,-1,-1],"loss_changes":[6.195327E13,2.4114606E12,1.4192751E13,1.74072E11,4.5441286E10,1.2081929E12,1.3595836E12,0E0,0E0,0E0,0E0,0E0,6.6910106E11,0E0,0E0,8.3381395E10,4.5938246E10,5.7571033E10,5.8534232E10,0E0,0E0,0E0,0E0,0E0,0E0],"parents":[2147483647,0,0,1,1,2,2,3,3,4,4,5,5,6,6,12,12,15,15,16,16,17,17,18,18],"right_children":[2,4,6,8,10,12,14,-1,-1,-1,-1,-1,16,-1,-1,18,20,22,24,-1,-1,-1,-1,-1,-1],"split_conditions":[3.5610198E6,3.3705652E6,4.886329E6,2.3862732E6,5E0,1E0,2E1,-1.16967E4,-7.829189E3,-1.0889766E3,-3.7372825E3,-3.914116E3,4.1983795E6,1.0164083E4,4.61731E3,2.3E1,9E0,4.2464215E6,5E0,4.9336284E3,2.434265E3,2.1941634E2,1.4428212E3,1.9706438E2,-1.721385E3],"split_indices":[3,4,3,4,1,0,0,0,0,0,0,0,4,0,0,0,0,3,1,0,0,0,0,0,0],"split_type":[0,0,0,0,0,0,0,0,0,0,0,0,0,0,0,0,0,0,0,0,0,0,0,0,0],"sum_hessian":[1.2E2,4.2E1,7.8E1,3.6E1,6E0,3.7E1,4.1E1,2.4E1,1.2E1,2E0,4E0,4E0,3.3E1,3.3E1,8E0,2.2E1,1.1E1,1.7E1,5E0,2E0,9E0,1.2E1,5E0,3E0,2E0],"tree_param":{"num_deleted":"0","num_feature":"6","num_nodes":"25","size_leaf_vector":"1"}},{"base_weights":[-1.9388275E3,-9.586798E5,5.1884347E5,-1.0652032E6,-3.5948925E5,1.1174687E5,9.5513856E5,-1.1566286E4,-7.522704E5,-1.0817167E3,-4.2523316E5,-3.882804E3,1.7459922E5,1.0355035E4,5.8112886E3,-8.107039E3,-8.396725E2,-5.047679E3,-1.7744242E3,5.56277E3,1.1333487E5,-5.22875E2,2.5758953E5,-8.274931E2,5.0118228E2,2.7218967E3,2.659375E2],"categories":[],"categories_nodes":[],"categories_segments":[],"categories_sizes":[],"default_left":[0,0,0,0,0,0,0,0,0,0,0,0,0,0,0,0,0,0,0,0,0,0,0,0,0,0,0],"id":56,"left_children":[1,3,5,7,9,11,13,-1,15,-1,17,-1,19,-1,-1,-1,-1,-1,-1,-1,21,23,25,-1,-1,-1,-1],"loss_changes":[6.078611E13,2.3616658E12,1.3924789E13,1.598659E11,8.618272E10,1.3877649E12,5.404151E11,0E0,3.6149238E11,0E0,2.8680585E10,0E0,8.255177E11,0E0,0E0,0E0,0E0,0E0,0E0,0E0,5.5856805E11,8.7428006E10,4.3350032E10,0E0,0E0,0E0,0E0],"parents":[2147483647,0,0,1,1,2,2,3,3,4,4,5,5,6,6,8,8,10,10,12,12,20,20,21,21,22,22],"right_children":[2,4,6,8,10,12,14,-1,16,-1,18,-1,20,-1,-1,-1,-1,-1,-1,-1,22,24,26,-1,-1,-1,-1],"split_conditions":[3.5610198E6,3.2206248E6,5.1296465E6,2.6370692E6,5E0,1E0,1.9E1,-1.1566286E4,3E0,-1.0817167E3,1E1,-3.882804E3,1E1,1.0355035E4,5.8112886E3,-8.107039E3,-8.396725E2,-5.047679E3,-1.7744242E3,5.56277E3,4.1747495E6,4.092904E6,2.3E1,-8.274931E2,5.0118228E2,2.7218967E3,2.659375E2],"split_indices":[3,4,3,5,1,0,0,0,0,0,0,0,0,0,0,0,0,0,0,0,4,5,0,0,0,0,0],"split_type":[0,0,0,0,0,0,0,0,0,0,0,0,0,0,0,0,0,0,0,0,0,0,0,0,0,0,0],"sum_hessian":[1.2E2,4.2E1,7.8E1,3.5E1,7E0,4.1E1,3.7E1,2.5E1,1E1,2E0,5E0,4E0,3.7E1,2.9E1,8E0,9E0,1E0,3E0,2E0,4E0,3.3E1,1.9E1,1.4E1,7E0,1.2E1,1.3E1,1E0],"tree_param":{"num_deleted":"0","num_feature":"6","num_nodes":"27","size_leaf_vector":"1"}},{"base_weights":[-1.9848419E3,-9.497539E5,5.1391456E5,-1.0453248E6,-3.089142E5,6.8912E4,9.042999E5,-1.1481817E4,-7.671134E3,-1.074505E3,-3.6800956E5,-3.8517417E3,1.3366256E5,9.970347E3,4.5349062E3,-4.0415293E3,-1.1171799E3,3.0329348E4,3.2057934E5,6.295861E4,-7.2613336E4,4.8636514E3,2.3878564E3,2.150023E2,1.4229199E3,1.9241562E2,-1.7088208E3],"categories":[],"categories_nodes":[],"categories_segments":[],"categories_sizes":[],"default_left":[0,0,0,0,0,0,0,0,0,0,0,0,0,0,0,0,0,0,0,0,0,0,0,0,0,0,0],"id":57,"left_children":[1,3,5,7,9,11,13,-1,-1,-1,15,-1,17,-1,-1,-1,-1,19,21,23,25,-1,-1,-1,-1,-1,-1],"loss_changes":[5.965146E13,2.3106505E12,1.3661758E13,1.7800626E11,4.3796136E10,1.1687722E12,1.3036945E12,0E0,0E0,0E0,1.165099E9,0E0,6.4697716E11,0E0,0E0,0E0,0E0,8.182734E10,4.6585872E10,5.6143307E10,5.7446834E10,0E0,0E0,0E0,0E0,0E0,0E0],"parents":[2147483647,0,0,1,1,2,2,3,3,4,4,5,5,6,6,10,10,12,12,17,17,18,18,19,19,20,20],"right_children":[2,4,6,8,10,12,14,-1,-1,-1,16,-1,18,-1,-1,-1,-1,20,22,24,26,-1,-1,-1,-1,-1,-1],"split_conditions":[3.5610198E6,3.3705652E6,4.886329E6,2.3862732E6,5E0,1E0,2E1,-1.1481817E4,-7.671134E3,-1.074505E3,3.807679E6,-3.8517417E3,4.1983795E6,9.970347E3,4.5349062E3,-4.0415293E3,-1.1171799E3,2.3E1,9E0,4.2464215E6,5E0,4.8636514E3,2.3878564E3,2.150023E2,1.4229199E3,1.9241562E2,-1.7088208E3],"split_indices":[3,4,3,4,1,0,0,0,0,0,4,0,4,0,0,0,0,0,0,3,1,0,0,0,0,0,0],"split_type":[0,0,0,0,0,0,0,0,0,0,0,0,0,0,0,0,0,0,0,0,0,0,0,0,0,0,0],"sum_hessian":[1.2E2,4.2E1,7.8E1,3.6E1,6E0,3.7E1,4.1E1,2.4E1,1.2E1,2E0,4E0,4E0,3.3E1,3.3E1,8E0,3E0,1E0,2.2E1,1.1E1,1.7E1,5E0,2E0,9E0,1.2E1,5E0,3E0,2E0],"tree_param":{"num_deleted":"0","num_feature":"6","num_nodes":"27","size_leaf_vector":"1"}},{"base_weights":[-2.0258812E3,-9.408467E5,5.090035E5,-1.04512256E6,-3.5399953E5,1.0963168E5,9.370196E5,-1.1351998E4,-7.372015E5,-1.0673417E3,-4.1863228E5,-3.820928E3,1.7144722E5,5.6938667E3,1.0160756E4,-7.9536035E3,-7.78065E2,-4.9704355E3,-1.7453982E3,5.478441E3,1.1105218E5,-7.85225E2,2.5276523E5,-1.321238E3,3.016416E2,2.6705352E3,2.63645E2],"categories":[],"categories_nodes":[],"categories_segments":[],"categories_sizes":[],"default_left":[0,0,0,0,0,0,0,0,0,0,0,0,0,0,0,0,0,0,0,0,0,0,0,0,0,0,0],"id":58,"left_children":[1,3,5,7,9,11,13,-1,15,-1,17,-1,19,-1,-1,-1,-1,-1,-1,-1,21,23,25,-1,-1,-1,-1],"loss_changes":[5.8530464E13,2.2613674E12,1.3401344E13,1.6164848E11,8.316918E10,1.3421499E12,5.2587764E11,0E0,3.599625E11,0E0,2.8083683E10,0E0,8.0299596E11,0E0,0E0,0E0,0E0,0E0,0E0,0E0,5.3905834E11,8.528238E10,4.1482453E10,0E0,0E0,0E0,0E0],"parents":[2147483647,0,0,1,1,2,2,3,3,4,4,5,5,6,6,8,8,10,10,12,12,20,20,21,21,22,22],"right_children":[2,4,6,8,10,12,14,-1,16,-1,18,-1,20,-1,-1,-1,-1,-1,-1,-1,22,24,26,-1,-1,-1,-1],"split_conditions":[3.5610198E6,3.2206248E6,5.1296465E6,2.6370692E6,5E0,1E0,5.5546855E6,-1.1351998E4,3E0,-1.0673417E3,1E1,-3.820928E3,1E1,5.6938667E3,1.0160756E4,-7.9536035E3,-7.78065E2,-4.9704355E3,-1.7453982E3,5.478441E3,4.1747495E6,3.8731755E6,2.3E1,-1.321238E3,3.016416E2,2.6705352E3,2.63645E2],"split_indices":[3,4,3,5,1,0,3,0,0,0,0,0,0,0,0,0,0,0,0,0,4,4,0,0,0,0,0],"split_type":[0,0,0,0,0,0,0,0,0,0,0,0,0,0,0,0,0,0,0,0,0,0,0,0,0,0,0],"sum_hessian":[1.2E2,4.2E1,7.8E1,3.5E1,7E0,4.1E1,3.7E1,2.5E1,1E1,2E0,5E0,4E0,3.7E1,8E0,2.9E1,9E0,1E0,3E0,2E0,4E0,3.3E1,1.9E1,1.4E1,3E0,1.6E1,1.3E1,1E0],"tree_param":{"num_deleted":"0","num_feature":"6","num_nodes":"27",